<?xml version="1.0"?>
<opencv_storage>
<opencv_ml_svm>
  <format>3</format>
  <svmType>C_SVC</svmType>
  <kernel>
    <type>LINEAR</type></kernel>
  <C>1.</C>
  <term_criteria><iterations>10000</iterations></term_criteria>
  <var_count>1764</var_count>
  <class_count>2</class_count>
  <class_labels type_id="opencv-matrix">
    <rows>2</rows>
    <cols>1</cols>
    <dt>i</dt>
    <data>
      -1082130432 1065353216</data></class_labels>
  <sv_total>1</sv_total>
  <support_vectors>
    <_>
      -1.49885723e-02 -1.82331651e-02 1.13975350e-02 5.24743460e-03
      2.28959415e-02 9.03341360e-03 7.12173479e-03 5.71602024e-03
      1.31157890e-03 -2.00525057e-02 -5.66510595e-02 -1.28518790e-02
      -3.81492591e-03 1.54871671e-02 1.65637098e-02 -9.77381133e-03
      4.81682783e-03 -1.77387111e-02 2.28563715e-02 3.12666148e-02
      2.30370685e-02 2.71080364e-03 1.45062096e-02 3.19102034e-03
      1.52140101e-02 2.20453162e-02 2.55086888e-02 -5.34412973e-02
      -3.29451077e-02 -3.28503400e-02 -6.22644722e-02 -8.44255388e-02
      -5.43912174e-03 -1.72812045e-02 3.35648768e-02 -4.30976190e-02
      -2.65808571e-02 -3.57175283e-02 1.46987131e-02 -2.01567425e-03
      2.35222448e-02 9.57785361e-03 1.48057276e-02 3.10597243e-03
      -1.59850996e-02 -4.43800054e-02 -4.88982573e-02 8.31358694e-03
      4.16459003e-03 2.15047784e-03 1.78100206e-02 2.66940407e-02
      4.44950117e-03 -3.48419249e-02 -6.36873245e-02 -5.16210236e-02
      6.81067025e-03 -1.63304005e-02 2.29312712e-03 1.66742969e-02
      -6.60216808e-03 4.65109944e-03 -1.88404657e-02 -9.45093930e-02
      -7.36487731e-02 3.14341509e-03 -1.45127373e-02 -3.52367312e-02
      1.45899123e-02 1.05939303e-02 -1.76428852e-03 -5.03583774e-02
      -2.53726114e-02 -4.15269434e-02 1.23840221e-03 6.35685958e-03
      3.24174650e-02 1.03253219e-02 1.38126109e-02 -9.73495375e-03
      -9.97779518e-03 -2.31727641e-02 -5.05667459e-03 2.74453163e-02
      1.25943013e-02 7.34157488e-02 -1.35997282e-02 1.05405254e-02
      -1.99802201e-02 -7.28990941e-04 -7.27955922e-02 -5.90470172e-02
      1.60052895e-03 2.66348594e-03 7.71928020e-03 1.73935294e-03
      8.18300713e-03 -3.02805733e-02 -5.87642603e-02 -4.01452221e-02
      7.05897762e-03 3.07865869e-02 1.87525190e-02 2.59350818e-02
      -4.85593528e-02 -4.25478956e-03 -5.02641797e-02 -4.78554294e-02
      -2.76767090e-02 -2.04915032e-02 4.36559990e-02 3.50130014e-02
      2.59105638e-02 1.33287171e-02 3.13424617e-02 1.02834022e-02
      -1.44785354e-02 -9.51289851e-03 -1.42013524e-02 5.42657077e-02
      4.03900407e-02 6.50759786e-02 2.96485797e-02 4.46986668e-02
      1.63249429e-02 7.81140896e-03 -4.18893211e-02 -1.03363572e-02
      3.10263857e-02 1.87513251e-02 -5.17012775e-02 -3.33522893e-02
      -7.76617555e-03 -3.35401781e-02 -5.56525663e-02 -1.07364543e-01
      -3.76606621e-02 3.72456312e-02 2.09684446e-02 1.63870994e-02
      -3.73856933e-03 6.74086995e-03 -2.26586405e-02 -7.45726302e-02
      9.95680690e-03 -2.27399450e-02 3.47092152e-02 1.96212251e-02
      9.25135426e-03 -1.17554497e-02 1.11922249e-02 -3.50576174e-03
      4.30868864e-02 2.04821322e-02 -3.42714563e-02 3.74507047e-02
      2.68355347e-02 2.75393277e-02 1.01867458e-02 -6.87502266e-04
      -2.15882249e-02 4.96394858e-02 -9.61621627e-02 -2.25497615e-02
      4.07682545e-02 1.36819053e-02 -1.06579205e-02 -1.45397382e-02
      -3.27688945e-03 -2.21900325e-02 -6.35125935e-02 -7.11127445e-02
      -1.54791446e-02 3.67380008e-02 2.22944766e-02 7.05308979e-03
      -2.44653574e-03 -1.74989812e-02 -4.58797663e-02 -4.88247350e-02
      8.28612037e-03 -5.98902302e-03 6.18908703e-02 3.48579325e-02
      5.14034182e-05 -1.15769124e-02 -2.24648006e-02 -3.82515788e-02
      3.20021249e-02 7.45848008e-03 1.14757391e-02 6.02969043e-02
      3.86396311e-02 3.90372314e-02 3.20510603e-02 1.51979402e-02
      -1.01601044e-02 3.48711982e-02 -1.00009039e-01 -2.76146666e-03
      3.28296386e-02 1.86364874e-02 -2.92918645e-03 -7.21356599e-03
      -2.15287618e-02 -3.46886143e-02 -7.91965574e-02 -6.05890788e-02
      -4.18358296e-03 2.81373374e-02 4.84862924e-03 3.48166116e-02
      1.67000610e-02 1.93874538e-02 4.62316722e-03 -3.92208099e-02
      -2.96103042e-02 -5.55113936e-03 2.44314056e-02 1.46771781e-02
      -5.47734573e-02 6.87693479e-03 1.49355354e-02 7.49129336e-03
      -7.02066906e-03 1.75287221e-02 3.75107117e-03 1.72462836e-02
      2.26939172e-02 4.17758115e-02 3.96206938e-02 3.55431363e-02
      4.23118845e-02 6.24126792e-02 -3.25562432e-02 -2.15937868e-02
      5.69350272e-03 9.81388614e-03 -4.71395440e-02 2.31105778e-02
      1.10135386e-02 8.55547003e-03 -1.05140880e-02 3.39257671e-03
      1.44129544e-02 9.63531900e-03 1.40454741e-02 5.14239557e-02
      2.91726403e-02 4.48227394e-03 2.46863309e-02 3.44550610e-02
      -2.98480261e-02 1.63166653e-02 2.24036537e-02 1.45769417e-02
      3.07688769e-02 4.44067083e-03 7.72037217e-03 6.73701707e-03
      -3.74794900e-02 -6.71759620e-02 -3.76983732e-02 -2.64765900e-02
      -2.55045239e-02 -3.44360881e-02 -2.10306537e-03 -3.00583448e-02
      7.50031136e-03 -4.52766269e-02 5.03608063e-02 3.04696616e-02
      4.74491268e-02 3.90591957e-02 5.37723713e-02 1.69537347e-02
      1.41947856e-02 2.43130792e-02 5.00459224e-02 -1.72774810e-02
      -2.53038164e-02 -1.11289567e-03 -1.16061540e-02 -3.88727384e-03
      1.34695815e-02 -1.53421331e-02 1.83248315e-02 1.44622661e-02
      -3.66129428e-02 -1.96150485e-02 9.77087766e-03 -6.24294067e-03
      1.48330824e-02 2.22845320e-02 -3.15198302e-02 -9.29492339e-03
      -1.64732598e-02 -5.63806593e-02 -2.15859301e-02 1.27388285e-02
      1.13405483e-02 -4.74361666e-02 3.54565755e-02 1.01398332e-02
      -3.95869091e-03 -3.29816155e-02 -2.15499122e-02 -4.49750423e-02
      -2.34038960e-02 -1.46057885e-02 2.11220570e-02 2.46914141e-02
      -4.15397296e-03 2.01113950e-02 1.37874875e-02 -1.17395995e-02
      -3.59047763e-02 2.75058695e-03 8.09903909e-03 -4.45107259e-02
      1.69645287e-02 1.80846006e-02 1.64419040e-02 6.62340689e-03
      -3.55870165e-02 -2.69932169e-02 1.45189948e-02 5.27478382e-03
      2.37143189e-02 1.38576208e-02 9.46863496e-04 -3.14148143e-02
      -3.01740449e-02 -4.26777489e-02 -2.17744987e-02 1.01312883e-02
      1.59510262e-02 7.78636150e-03 -4.80445437e-02 -9.74742789e-03
      -5.72877564e-02 -4.61715274e-02 -1.10962754e-02 -1.57687478e-02
      1.88226197e-02 -2.53773085e-03 1.69283766e-02 5.56338159e-03
      2.03068592e-02 1.71784163e-02 -7.17083531e-05 -6.28048263e-04
      5.54784900e-03 1.93393845e-02 1.27005866e-02 -6.83095958e-03
      -6.23159260e-02 -1.19453585e-02 1.27470605e-02 2.92588770e-03
      -2.09724959e-02 -4.85003032e-02 1.00285383e-02 6.90320134e-03
      -2.86847670e-02 -3.64093706e-02 1.65084831e-03 -3.01142540e-02
      -2.03404184e-02 1.45267947e-02 -5.91639169e-02 5.71674155e-03
      -1.89170446e-02 -1.41250063e-02 -8.48848280e-03 7.12577859e-03
      -1.28001021e-02 2.03861557e-02 -3.58480238e-03 1.10279238e-02
      1.75881991e-03 -1.86868552e-02 -6.71481267e-02 -6.47762716e-02
      -1.36431037e-02 1.04124285e-02 3.84289213e-03 -8.32456537e-03
      -1.90620441e-02 -2.01413445e-02 -2.63618659e-02 -5.10314330e-02
      -5.69558069e-02 -4.38389508e-03 2.00924315e-02 1.41885760e-03
      -4.14494239e-02 -7.37410709e-02 -1.27952285e-02 -2.77552921e-02
      -3.95904221e-02 -2.46968810e-02 -4.37962962e-03 -2.37139687e-02
      5.23963850e-03 -2.79103536e-02 -3.44775990e-02 8.58532544e-03
      1.89200360e-02 -7.67529709e-03 -1.15587791e-04 2.21575701e-05
      -1.57611351e-02 -1.67086236e-02 -3.51504199e-02 -2.26191562e-02
      -6.70849020e-03 -2.02776697e-02 -4.60522324e-02 -5.73915578e-02
      1.98119022e-02 1.93115454e-02 1.53455665e-04 -3.41299102e-02
      9.36213415e-03 1.40818283e-02 3.01935151e-02 1.62052875e-03
      1.20064821e-02 3.12091708e-02 1.20609375e-02 -7.95339141e-03
      -9.77534503e-02 -4.70532849e-02 -3.25879152e-03 -5.14077675e-03
      -5.42737432e-02 -1.01889037e-02 4.23806580e-03 -2.49918774e-02
      -8.29833075e-02 -8.78570154e-02 -8.91906396e-03 1.82427093e-02
      6.44011935e-03 8.99533567e-04 6.48681354e-03 1.31920632e-02
      -7.89859239e-03 -7.01503605e-02 -4.26552482e-02 -3.54552222e-03
      9.53628402e-03 4.19227779e-02 1.47192813e-02 3.01148593e-02
      2.88098119e-02 1.19599076e-02 -1.26684140e-02 6.73343521e-03
      4.24854793e-02 5.72961271e-02 7.10210949e-02 6.27788603e-02
      5.51136397e-02 3.89330499e-02 4.54075746e-02 3.83446217e-02
      -9.98425856e-02 -2.57122722e-02 1.26652895e-02 8.98191426e-03
      -9.15601552e-02 7.54394755e-03 -1.15013439e-02 -1.62335318e-02
      -8.87623057e-02 -2.55208034e-02 3.05641297e-04 -1.43180806e-02
      -2.12010136e-03 5.47389053e-02 2.38916948e-02 8.18314787e-04
      2.86139478e-03 1.00302966e-02 -6.41975086e-04 3.52704227e-02
      3.72196808e-02 4.48879972e-02 -4.19878624e-02 4.34481129e-02
      3.87787744e-02 4.14021201e-02 1.71695147e-02 3.23287770e-02
      3.75918821e-02 4.07559611e-02 3.86960469e-02 1.00593574e-01
      5.12530766e-02 3.38381790e-02 3.71379182e-02 4.71968316e-02
      -6.58457167e-03 2.28921138e-02 5.05833477e-02 5.17166443e-02
      7.15329126e-02 1.42289493e-02 8.59060511e-03 8.24279711e-03
      -1.77328996e-02 -4.70964611e-02 -1.50254527e-02 1.67950075e-02
      1.16654988e-02 8.00135545e-03 2.08604913e-02 -5.72157977e-03
      -3.36074620e-03 -5.79277053e-02 3.96217927e-02 -1.35885959e-03
      7.89173355e-04 1.30689042e-02 4.34851944e-02 3.45061384e-02
      3.54195237e-02 5.16674481e-03 3.60836089e-02 -3.66619602e-03
      -3.69280130e-02 -1.73543170e-02 1.52690918e-03 -1.81046594e-02
      4.10022885e-02 3.26747410e-02 -7.07756379e-04 -5.51953260e-03
      -5.52014224e-02 -2.87263598e-02 -1.22828940e-02 1.86963950e-03
      3.73766124e-02 1.46795511e-02 4.54292586e-03 1.51521778e-02
      -4.26422767e-02 -4.82145324e-02 -3.78991924e-02 1.02356020e-02
      1.86329577e-02 -8.99376422e-02 2.85072830e-02 3.07568517e-02
      2.39428785e-02 -2.16961931e-02 -1.06257480e-02 -1.88836306e-02
      7.25606689e-03 9.49581806e-03 3.90662774e-02 3.94713804e-02
      3.61998267e-02 1.80584881e-02 -1.20348781e-02 2.87411772e-02
      1.60118006e-02 2.73317788e-02 2.16396451e-02 -2.86878552e-02
      3.21504138e-02 1.77102871e-02 1.12640727e-02 4.00033742e-02
      -4.82457653e-02 -2.18000263e-02 1.54091045e-02 8.96107219e-03
      -3.84111889e-02 7.35624833e-03 1.72938500e-02 2.21412536e-02
      -3.84807736e-02 -6.20251596e-02 1.44955236e-03 5.81930857e-03
      1.60722975e-02 -4.61479127e-02 -7.12411627e-02 -4.04174700e-02
      -6.11873344e-03 -8.71449038e-02 5.82631156e-02 2.79745422e-02
      2.18815543e-02 6.63602026e-03 -1.38594089e-02 2.26060897e-02
      8.40661023e-03 2.00896747e-02 5.58843277e-02 3.18234414e-02
      3.58460620e-02 4.02538106e-02 3.52642238e-02 -3.64359729e-02
      -3.90015244e-02 -2.26487946e-02 1.93009321e-02 2.70840637e-02
      -5.88733964e-02 5.44717303e-04 -1.55157698e-02 -1.86572950e-02
      -7.24284351e-02 -7.08456933e-02 -3.08064111e-02 9.29327961e-03
      -7.12657869e-02 3.25759128e-03 -2.00566854e-02 -2.05557607e-02
      -3.37835364e-02 -6.08196892e-02 -4.39074971e-02 5.94046619e-03
      3.14763151e-02 1.09895030e-02 2.34435592e-02 2.97841039e-02
      2.43277103e-02 -6.51240163e-03 -6.53669685e-02 -3.16042416e-02
      -8.55583139e-03 3.32262963e-02 3.17926444e-02 2.33917329e-02
      -5.88996988e-03 -3.00444923e-02 -3.19060050e-02 -6.90264255e-02
      -3.03772632e-02 1.42896660e-02 3.54950055e-02 2.15650890e-02
      -6.53742626e-02 -1.33433333e-02 -1.04284268e-02 -1.78263579e-02
      -7.53437951e-02 -6.37846142e-02 6.44537294e-03 1.29471961e-02
      -6.04248606e-02 -1.55489035e-02 1.11929495e-02 1.45458328e-02
      2.58436035e-02 6.59019826e-03 3.64100141e-03 2.63843704e-02
      1.18775861e-02 -1.81615632e-02 9.47840104e-04 -1.38856918e-02
      -4.55005281e-02 -5.74347936e-02 -8.52307603e-02 -4.32163589e-02
      2.14748606e-02 2.31943168e-02 -1.19328061e-02 1.06216501e-02
      -1.16643244e-02 -4.57391003e-03 1.22052478e-03 4.25088853e-02
      2.10808888e-02 3.55843119e-02 1.49120437e-02 5.42157562e-04
      -5.82273342e-02 1.14197349e-02 7.16887007e-04 2.12986413e-02
      -6.91034868e-02 -2.68743490e-03 -7.52356695e-03 -1.62614454e-02
      -6.26872182e-02 -4.69156615e-02 2.72212345e-02 3.86011899e-02
      4.59301844e-02 8.14557672e-02 6.96135685e-02 1.77153517e-02
      3.17661650e-02 -4.44595218e-02 -8.78117699e-03 -6.88766688e-03
      -4.54273680e-03 -2.27410402e-02 -8.50256160e-02 1.15403095e-02
      1.88366156e-02 1.89471000e-03 -1.06151146e-03 2.46529840e-02
      3.05550266e-02 3.08171138e-02 3.90752628e-02 7.74277449e-02
      6.85808212e-02 2.73500439e-02 4.78679454e-03 1.98415704e-02
      -6.79643974e-02 2.75773518e-02 4.35821079e-02 4.06596549e-02
      -9.22335684e-02 5.15498593e-02 2.90707257e-02 3.26880962e-02
      -6.27822876e-02 1.25321215e-02 2.69555505e-02 4.66210619e-02
      5.99516705e-02 8.00591782e-02 7.12556541e-02 5.33669777e-02
      5.47410101e-02 2.98125483e-02 -2.83145010e-02 2.63389293e-02
      2.61054747e-02 3.39032598e-02 -4.90650535e-02 2.23464407e-02
      4.59158793e-04 -1.61605179e-02 -2.34431736e-02 6.92689419e-02
      5.68488874e-02 5.31579778e-02 4.92063649e-02 6.66735768e-02
      3.73484343e-02 2.85447836e-02 3.19729783e-02 5.64972199e-02
      3.10389940e-02 1.72476973e-02 7.69125717e-03 -2.37374334e-03
      1.34004769e-03 2.95109600e-02 2.67804228e-02 1.03377393e-02
      2.92923357e-02 8.71074037e-04 1.67432316e-02 2.12947633e-02
      1.50805162e-02 4.98109590e-03 4.61379215e-02 2.68043503e-02
      -1.62436708e-03 -4.90498263e-03 1.85802095e-02 4.67725061e-02
      5.71467131e-02 1.44289322e-02 9.98946838e-03 2.13509314e-02
      2.54173391e-02 3.09796259e-02 1.51963183e-03 -2.69886013e-02
      2.38018166e-02 5.26304431e-02 1.10939341e-02 -8.93746689e-03
      1.56915188e-02 1.77114550e-02 -1.49758123e-02 -3.14222500e-02
      -7.01178913e-04 9.71591473e-03 2.61467602e-02 9.43053514e-03
      7.90620409e-03 3.99795324e-02 3.44812647e-02 3.25395423e-03
      -1.42710190e-02 1.84157267e-02 3.04717179e-02 1.60552897e-02
      3.20736133e-03 -8.36855471e-02 2.13578083e-02 1.84637383e-02
      1.86000746e-02 2.14795885e-03 3.13753053e-03 2.29058042e-02
      2.69616339e-02 2.63631828e-02 2.17107963e-02 9.75096656e-04
      5.45305992e-03 -1.05557423e-02 -2.81320829e-02 8.76784511e-03
      4.52767387e-02 3.59522812e-02 4.75875512e-02 -1.84739288e-02
      4.11647186e-02 2.51479074e-02 1.39431534e-02 3.43158608e-03
      2.25615278e-02 5.77058569e-02 3.42851020e-02 3.96941379e-02
      -2.62140054e-02 3.87354847e-03 3.23563232e-03 1.15425009e-02
      2.32205988e-04 6.44373428e-03 2.53407229e-02 2.52317246e-02
      -8.40914901e-03 -2.83019487e-02 -4.99007180e-02 -2.45654024e-02
      -1.03438422e-02 -2.30117310e-02 3.87346419e-03 2.24673431e-02
      1.22660408e-02 5.22915870e-02 4.28415798e-02 3.30659077e-02
      2.61825733e-02 5.78881241e-03 -1.40997041e-02 -2.17723250e-02
      -9.17937024e-04 -4.55718866e-04 9.04514082e-03 -6.43527135e-03
      -2.19976455e-02 3.47506553e-02 1.25672789e-02 -4.55693007e-02
      -2.85397712e-02 2.33939588e-02 3.19981538e-02 2.47470220e-03
      -1.32525302e-02 -1.83951743e-02 4.91213938e-03 2.39721406e-02
      -3.84967923e-02 -5.86039834e-02 -2.16746647e-02 -3.32729332e-02
      -5.13003506e-02 -6.47198483e-02 -2.35607568e-02 4.39168001e-03
      2.52496880e-02 -3.85335125e-02 -2.14556735e-02 7.67918397e-03
      7.30257388e-03 -3.71175306e-03 3.82728130e-02 -1.12537928e-02
      3.13627534e-02 2.65552290e-02 -3.17099877e-02 -1.89119037e-02
      -1.61425546e-02 -4.37583365e-02 -4.50458229e-02 -3.20362188e-02
      -2.37485468e-02 1.01530552e-02 1.25200357e-02 -2.00277530e-02
      -4.81794551e-02 -3.16181891e-02 -5.81126809e-02 -7.88859054e-02
      -6.49680421e-02 -4.73781228e-02 5.65064279e-03 2.84200627e-02
      -4.61151004e-02 -9.62746516e-03 1.40435074e-03 7.95359156e-05
      -2.94255116e-03 -1.64315868e-02 1.15017295e-02 2.49757320e-02
      2.91021690e-02 -2.28514206e-02 2.14838143e-03 -1.68777145e-02
      -4.52251248e-02 -6.83100820e-02 -4.42836806e-02 -3.34672444e-02
      -5.70181850e-03 1.40417879e-02 1.17592432e-03 -5.83458925e-03
      2.18093600e-02 1.98767614e-02 -4.04387852e-03 2.08532270e-02
      3.61720799e-03 1.20668551e-02 2.85192840e-02 -1.95449423e-02
      -8.75089765e-02 6.30716654e-03 -3.94278113e-03 -2.25796644e-02
      -7.09144548e-02 5.61703276e-03 1.89908873e-02 5.86128701e-03
      -8.71136934e-02 -1.70765389e-02 3.04448847e-02 2.72504222e-02
      3.92446034e-02 8.00962076e-02 6.06606230e-02 3.53311338e-02
      2.44885106e-02 -2.97261011e-02 -4.87576053e-02 2.72545721e-02
      2.14194227e-02 2.29570717e-02 -2.25248691e-02 2.58871671e-02
      3.66829820e-02 4.09322605e-02 -5.79810441e-02 -2.32921727e-02
      3.92712839e-02 1.29113840e-02 3.78557220e-02 4.56976444e-02
      5.34562804e-02 3.55883427e-02 2.97305081e-02 -2.93055624e-02
      -3.56094576e-02 2.84532439e-02 3.06287203e-02 3.23974825e-02
      -3.69393006e-02 2.23399717e-02 1.50266644e-02 8.35544243e-03
      -4.51331846e-02 6.31665736e-02 4.33774292e-02 5.14359511e-02
      6.95588142e-02 7.13946074e-02 3.59017737e-02 4.55144718e-02
      5.39333485e-02 5.30377440e-02 -7.80709237e-02 -6.39687001e-04
      3.36981914e-03 2.59668417e-02 -6.14310661e-03 2.35126968e-02
      1.46744344e-02 6.98588742e-03 -7.98625797e-02 1.84298288e-02
      1.80236418e-02 3.91264744e-02 8.38839337e-02 6.96583614e-02
      3.61091718e-02 4.59691845e-02 2.30648760e-02 1.45261707e-02
      5.26010618e-02 5.83474375e-02 4.94212583e-02 1.74419116e-02
      2.58745272e-02 3.57997417e-02 1.78534519e-02 3.23784389e-02
      2.23758090e-02 1.09937298e-03 3.43489461e-02 3.93473916e-02
      2.33313092e-03 -5.87324202e-02 7.28061842e-03 -9.07903630e-03
      -1.54151879e-02 1.01972176e-02 -4.85885628e-02 -5.15937023e-02
      3.83884832e-03 1.05446093e-02 4.00158800e-02 2.89776362e-02
      1.96789838e-02 5.82942180e-03 -3.45151275e-02 -1.01745464e-01
      -3.17795984e-02 2.39773560e-02 1.40583320e-02 1.21724780e-03
      1.56165827e-02 9.61634703e-03 2.19197990e-03 -7.00932667e-02
      1.53046455e-02 2.10567974e-02 3.56943794e-02 3.34830061e-02
      2.30260510e-02 1.29386401e-02 3.68377985e-03 -5.34829963e-03
      2.06378754e-03 8.36032163e-03 1.77221149e-02 3.30658369e-02
      5.24331145e-02 2.03495789e-02 3.54676731e-02 5.21958573e-03
      6.44946005e-03 6.67259283e-03 -6.09222539e-02 -1.23602310e-02
      3.65738347e-02 2.09556781e-02 -6.86470838e-03 -2.11177096e-02
      -2.01163124e-02 -2.72569098e-02 -7.60357380e-02 -2.07153074e-02
      1.46083636e-02 7.18912631e-02 7.57449195e-02 -5.59907630e-02
      -7.00367847e-03 -1.28524778e-02 -1.36370175e-02 -4.93639000e-02
      1.33849969e-02 -5.11710579e-03 2.17911974e-02 5.92618361e-02
      9.38087702e-02 1.93306748e-02 -9.15974320e-04 -1.92592032e-02
      -2.52477126e-03 6.82668108e-03 -2.45357901e-02 -1.52632454e-02
      3.22426902e-03 2.46099755e-03 -9.18257143e-03 1.98721439e-02
      6.46329345e-03 1.42750051e-03 2.83909198e-02 -9.24277934e-04
      3.76043133e-02 5.89751862e-02 -3.07217296e-02 1.21588865e-02
      2.22943053e-02 1.52024888e-02 2.81659756e-02 -4.99429600e-03
      -4.86819036e-02 -3.34375165e-02 -1.21728452e-02 -5.60399294e-02
      -1.07897716e-02 4.36261259e-02 3.71913682e-03 8.18105973e-03
      -6.25691796e-03 -7.10406387e-03 -1.81374408e-03 -2.17038742e-03
      6.48068776e-03 -1.80127453e-02 9.69256274e-03 6.23555342e-03
      -1.79068148e-02 -3.61023694e-02 -2.21669450e-02 -4.09432873e-02
      -3.22716907e-02 -3.39589790e-02 -3.12862098e-02 -1.34528549e-02
      1.50775043e-02 -1.79692693e-02 -4.70315963e-02 -8.48923228e-04
      1.18507436e-02 3.54074920e-03 1.46455150e-02 -2.59712059e-03
      2.42620111e-02 6.31257379e-03 -4.07331623e-02 -4.08906601e-02
      -1.80941145e-03 2.83150207e-02 4.57965210e-02 7.17118382e-03
      1.60992630e-02 1.91069562e-02 1.10550411e-02 -5.38504124e-02
      -2.05066372e-02 -1.42058553e-02 -3.17980386e-02 -3.44777778e-02
      -5.60441874e-02 -3.43793184e-02 -2.84861829e-02 -6.58770418e-03
      -1.35836517e-02 1.62260868e-02 2.83767153e-02 1.83939599e-02
      -7.86480028e-04 -3.19628753e-02 1.39512261e-03 3.96030955e-04
      1.32848993e-02 1.57391711e-04 -2.15388983e-02 -7.51996133e-03
      6.81956345e-03 9.51730367e-03 -5.98393707e-03 7.45697413e-03
      2.11870037e-02 2.62787077e-03 -3.66257951e-02 -2.24103555e-02
      4.16458584e-03 2.80826949e-02 3.02178506e-02 7.00534740e-03
      1.74731296e-02 1.54552804e-02 -1.79208051e-02 -1.77129507e-02
      -1.54313343e-02 2.03770678e-02 2.75502335e-02 4.11123782e-02
      -7.51518384e-02 2.81384103e-02 2.62813885e-02 2.54209507e-02
      -2.48382110e-02 1.79925617e-02 2.14746445e-02 2.18321756e-02
      3.66914906e-02 4.53668125e-02 3.15199122e-02 2.41554920e-02
      1.05607286e-02 9.40732751e-03 -4.09326740e-02 1.16895596e-02
      4.56378236e-02 5.43271713e-02 -3.38387713e-02 3.09761316e-02
      2.49156747e-02 -1.15717519e-02 -1.94237102e-02 -5.04238866e-02
      -7.11255334e-03 6.01069517e-02 5.99353947e-02 6.75903931e-02
      3.85954790e-02 2.88473275e-02 -3.11285518e-02 -6.25684559e-02
      1.17569347e-03 -7.51558365e-03 -1.03023823e-03 2.68026139e-03
      3.46710300e-03 2.46844683e-02 1.61702186e-02 4.58603492e-04
      1.14519335e-03 3.51436213e-02 1.02369115e-02 2.20318288e-02
      3.83948870e-02 6.84676841e-02 4.30026911e-02 4.21844348e-02
      3.11352089e-02 3.32482941e-02 -2.67260745e-02 -2.81062420e-03
      3.90346609e-02 3.01286094e-02 2.64674239e-02 1.66416969e-02
      -6.41558599e-03 -1.51202660e-02 -3.75299007e-02 1.25805223e-02
      3.48492227e-02 3.90357673e-02 2.98258699e-02 5.04932888e-02
      2.50985734e-02 2.81301104e-02 3.86900082e-02 -7.54197920e-03
      -5.43294335e-03 -5.60742132e-02 -2.35932563e-02 -5.05332369e-03
      1.25982463e-02 2.25659478e-02 1.04538817e-02 9.85846389e-03
      -2.68582342e-04 -1.46657238e-02 -4.19730172e-02 3.10825671e-05
      8.40269215e-03 2.25018449e-02 5.99564705e-03 2.37524491e-02
      8.76286533e-04 1.80288125e-02 -2.19016988e-02 -5.32384366e-02
      -1.86421368e-02 -3.51231024e-02 2.15339568e-02 6.75878348e-03
      -4.17509452e-02 -3.22770774e-02 8.47718306e-03 -8.56388733e-03
      -4.60340865e-02 3.72965857e-02 4.31728959e-02 5.29898480e-02
      1.49480496e-02 -2.60462742e-02 -3.11616510e-02 8.00995342e-03
      -2.99902018e-02 -3.08975540e-02 1.73122324e-02 4.86404728e-03
      -1.32871838e-03 -1.26085225e-02 -1.44677944e-02 -7.83719681e-03
      -1.78140197e-02 -1.04458593e-02 1.56117994e-02 5.00592329e-02
      3.80348936e-02 2.33901087e-02 -9.67833865e-03 -1.70894768e-02
      -2.09670011e-02 -2.94112097e-02 -2.65783630e-02 -2.48483829e-02
      4.32359949e-02 2.15954855e-02 1.13914236e-02 1.36283338e-02
      -4.61244304e-03 -2.75418237e-02 2.87620537e-03 -3.21327522e-03
      -1.35419716e-03 5.72844408e-02 3.54003757e-02 3.76066603e-02
      4.39121164e-02 1.95548721e-02 2.15591094e-03 3.33597325e-03
      -2.35629082e-02 3.82899679e-02 4.95611802e-02 3.26247215e-02
      -2.99320091e-03 1.40080238e-02 1.21370172e-02 5.20293834e-03
      -5.17185517e-02 -3.21919955e-02 -2.47532013e-03 5.15284855e-03
      -1.01876678e-02 -6.90104254e-03 -3.57263780e-05 3.91274169e-02
      2.33432576e-02 -3.37976627e-02 7.22616620e-04 2.61348896e-02
      4.64881100e-02 1.70880277e-02 -3.37510668e-02 4.33096439e-02
      2.14917101e-02 1.24479495e-02 -2.57267281e-02 2.72795670e-02
      -1.53320665e-02 -9.59520508e-03 -5.35179861e-02 -3.84308547e-02
      4.29235585e-03 -1.01524265e-02 -9.77980066e-03 -1.87652127e-03
      -3.63984965e-02 -4.01222426e-03 -4.69074072e-03 -1.15405284e-02
      2.87591498e-02 -6.64058980e-03 1.74298976e-02 -1.78994692e-03
      -3.92540619e-02 -8.86125490e-02 5.08219376e-03 1.90956946e-02
      2.85701733e-02 2.74557788e-02 7.32016657e-03 1.52174495e-02
      7.62556493e-03 -8.69275257e-02 -8.72560660e-04 -1.70253906e-02
      -1.69243012e-02 -3.23884413e-02 -2.62527261e-03 1.57654081e-02
      1.23720262e-02 -1.06024314e-02 2.15294249e-02 -1.41183669e-02
      -3.73514257e-02 -2.16042008e-02 -1.18916901e-02 -5.86442742e-03
      -3.94350709e-03 -1.05771243e-04 1.80301140e-03 -1.39993690e-02
      -6.74815774e-02 3.49035859e-03 1.21229738e-02 1.54429739e-02
      1.63859483e-02 3.75319039e-03 2.15604273e-03 -1.50790429e-02
      -9.70098302e-02 -4.35393564e-02 2.55519971e-02 2.82903444e-02
      2.30649877e-02 2.59796269e-02 2.46853121e-02 1.51232742e-02
      -1.57429855e-02 -4.08969484e-02 -9.92141757e-03 -1.91152766e-02
      1.83567777e-03 -1.22750644e-04 -6.60602143e-03 -2.33005080e-02
      -1.67843830e-02 -1.35170026e-02 -4.43961471e-02 -5.40011423e-03
      3.47689330e-03 1.76803127e-03 3.00959926e-02 3.44198532e-02
      6.46356726e-03 -4.66065342e-03 5.40482160e-03 -6.23238459e-03
      -6.92184716e-02 1.49649372e-02 2.91962754e-02 2.85561755e-02
      -1.48848612e-02 2.91252118e-02 1.84856113e-02 -1.26781026e-02
      -5.75393885e-02 -5.47314398e-02 6.15260750e-03 4.49011736e-02
      4.62771356e-02 6.10839427e-02 3.83902825e-02 3.65077741e-02
      -2.64400896e-03 -6.14433512e-02 -3.28652784e-02 -2.12685559e-02
      6.10907981e-03 3.26435603e-02 -5.19951209e-02 -1.14457812e-02
      -2.08580494e-03 1.64729171e-02 -2.51378100e-02 7.24969339e-03
      -7.18527706e-04 1.55425649e-02 5.39271832e-02 4.24667411e-02
      8.17329343e-03 9.98751633e-03 1.41995652e-02 -8.04945081e-03
      -6.80824593e-02 1.96887553e-02 5.70584089e-02 4.10552025e-02
      3.58677357e-02 8.54112674e-03 8.27775151e-03 2.12751073e-03
      -7.51031488e-02 -2.63504628e-02 3.20908986e-02 5.15494309e-02
      4.13357131e-02 5.73798306e-02 1.97405927e-02 4.47963476e-02
      3.18611935e-02 -3.32130678e-02 4.21053078e-03 4.41360660e-03
      4.31972705e-02 3.09450272e-02 -3.70785967e-02 1.02175623e-02
      -1.81535972e-04 1.81755368e-02 -1.13665611e-02 2.17718035e-02
      1.54849878e-02 4.52962071e-02 3.46346423e-02 4.43677828e-02
      4.57995012e-03 4.63368744e-03 1.17702717e-02 -1.04590245e-02
      -5.03302272e-03 -3.27662006e-02 -9.53638460e-03 -3.80927511e-02
      5.22573944e-03 6.68815512e-04 -1.63198058e-02 -2.30657291e-02
      -2.15222742e-02 -4.89954464e-02 -2.35840399e-02 1.80473216e-02
      -8.93314183e-03 -6.01888960e-03 -8.84230342e-03 -2.64312383e-02
      -3.64545286e-02 -5.38378172e-02 2.60043703e-02 -5.38655266e-04
      3.03058159e-02 1.62926111e-02 4.84411903e-02 1.36782601e-02
      2.89014354e-02 1.82026364e-02 2.72119772e-02 -2.00886419e-03
      1.39101613e-02 5.05500659e-02 4.06674929e-02 4.30831648e-02
      1.75917745e-02 1.13902800e-02 -4.55646776e-03 2.00616312e-03
      -5.35238646e-02 -1.43566709e-02 2.16563586e-02 3.12978844e-03
      8.48177820e-03 1.85996704e-02 2.04922408e-02 -7.97630753e-03
      -3.00983805e-02 -2.63690371e-02 -4.85514011e-03 4.31730039e-02
      2.73341984e-02 2.22911928e-02 4.83106896e-02 4.33192588e-02
      3.35506001e-03 -1.54407211e-02 -3.18830423e-02 -1.32081835e-02
      4.10690382e-02 3.98099758e-02 3.83300595e-02 1.97495744e-02
      9.92608350e-03 -8.86075757e-03 -1.47049250e-02 -1.23537080e-02
      -2.33210810e-02 1.70242526e-02 2.89684068e-02 3.67926545e-02
      3.40752974e-02 2.15477180e-02 4.34521260e-03 1.31687755e-02
      -1.42502207e-02 1.22949341e-03 3.42339203e-02 1.91953667e-02
      9.54767573e-04 2.91760117e-02 1.57404598e-02 -1.75463781e-02
      -3.22373062e-02 4.61544329e-03 -1.26697011e-02 1.82637498e-02
      -6.51303446e-03 1.68029908e-02 6.15637237e-03 -1.27540557e-02
      -3.32156569e-02 -1.23189185e-02 1.36661958e-02 -1.39855221e-02
      1.35622853e-02 7.91229587e-03 2.69986913e-02 1.39669450e-02
      3.93687794e-03 -7.49552483e-03 1.07395183e-02 1.12596825e-02
      2.36518215e-03 2.25044452e-02 2.05420125e-02 5.13404720e-02
      1.53157720e-02 -9.44544002e-03 -1.20095523e-04 9.15976521e-03
      -3.24923210e-02 -3.40514481e-02 -5.10396482e-03 -2.35418659e-02
      2.59244312e-02 8.02210066e-03 5.47173619e-03 -2.16805302e-02
      -1.75391336e-03 -5.04616834e-02 -2.46050153e-02 -1.84874011e-06
      8.53245612e-03 1.30397081e-02 2.25491188e-02 2.15424225e-02
      1.71683487e-02 -1.39776943e-02 -9.26908758e-03 8.23671743e-03
      2.03451142e-02 1.73956491e-02 5.20304479e-02 -1.30368210e-03
      -2.14888205e-04 -8.77522770e-03 -1.50092961e-02 -1.43469404e-02
      -3.58610712e-02 -6.43043360e-03 1.94605850e-02 3.54331434e-02
      8.14065058e-03 9.65592079e-03 -1.24924153e-03 1.65605769e-02
      -4.53410707e-02 -1.78973842e-02 -4.15090332e-03 9.84056480e-03
      -4.90973610e-03 7.70083023e-03 -3.67615768e-03 -6.88477838e-03
      -3.41040380e-02 -1.00513529e-02 1.51289236e-02 2.09727958e-02
      3.20697427e-02 2.45757401e-02 7.08614290e-03 8.86075757e-03
      8.92514456e-03 3.84116406e-03 1.13196427e-03 -4.10966501e-02
      -1.00836288e-02 7.15286098e-03 1.02210883e-02 2.76776049e-02
      -6.68544881e-03 -5.77811711e-03 1.41791562e-02 1.26687028e-02
      -4.76619927e-03 1.88409351e-02 2.82215979e-02 4.28204611e-02
      2.38673240e-02 3.41155729e-03 -2.95390189e-03 2.75548827e-02
      -1.15752397e-02 4.25133575e-03 9.84434132e-03 2.24681608e-02
      -1.47036184e-03 -5.18097356e-03 2.12893933e-02 2.48987600e-02
      1.36789987e-02 2.74772700e-02 1.19427415e-02 2.23283917e-02
      4.11075540e-02 4.09036614e-02 2.21585650e-02 3.19120362e-02
      3.51030789e-02 3.11678480e-02 -1.80786324e-03 -2.29719058e-02
      1.48695037e-02 1.01257460e-02 -1.07722497e-03 1.75530333e-02
      2.46687122e-02 1.43662130e-03 2.22981293e-02 -7.15804705e-03
      -3.39964665e-02 2.80348603e-02 2.66712196e-02 6.92259073e-02
      2.73757428e-02 1.46904020e-02 -1.51349828e-02 2.56125792e-03
      8.60170741e-03 1.67413373e-02 4.04649116e-02 4.07071374e-02
      1.98000716e-03 1.62780304e-02 2.79418938e-02 4.80841286e-02
      9.65702999e-03 2.91815456e-02 2.54769213e-02 3.88914719e-02
      1.92378387e-02 7.34708318e-03 -8.24489817e-03 7.35973753e-03
      3.94554064e-02 9.37351398e-03 -1.61960907e-02 -2.50880606e-02
      2.17152089e-02 3.80778685e-02 8.79492331e-03 1.97420223e-03
      9.87874344e-03 -4.33485862e-03 -2.50875205e-03 3.35122757e-02
      5.54926228e-04 1.75506696e-02 2.54018269e-02 6.49114978e-03
      -2.80175265e-03 2.73068398e-02 3.79974470e-02 5.68889678e-02</_></support_vectors>
  <uncompressed_sv_total>78</uncompressed_sv_total>
  <uncompressed_support_vectors>
    <_>
      5.65663464e-02 1.20049946e-01 1.58188745e-01 1.00318350e-01
      2.12404743e-01 1.53287217e-01 6.81181401e-02 1.06390774e-01
      5.94765805e-02 2.84780353e-01 1.93720862e-01 2.44765610e-01
      1.03581890e-01 1.60987243e-01 1.47246018e-01 2.10216492e-01
      2.84780353e-01 2.84780353e-01 2.77436003e-02 2.42372733e-02
      2.49012150e-02 3.91167998e-02 1.28581792e-01 1.51408777e-01
      9.79874283e-02 2.21231043e-01 5.48792370e-02 2.84780353e-01
      4.26260158e-02 3.60574797e-02 4.15803939e-02 1.02056615e-01
      1.43341273e-01 1.71639621e-01 2.84780353e-01 2.84780353e-01
      3.33420932e-01 6.08020015e-02 5.73019013e-02 7.90523924e-03
      6.07616920e-03 6.04355847e-03 9.40975100e-02 1.91747531e-01
      3.33420932e-01 3.33420932e-01 1.51485085e-01 1.48038059e-01
      4.40638606e-03 1.76440785e-03 0. 3.12678069e-02 8.67213383e-02
      3.33420932e-01 3.33420932e-01 1.58575587e-02 8.75644851e-03
      2.89783790e-03 6.03112672e-03 5.78387035e-03 3.49822380e-02
      1.33194521e-01 3.01868767e-01 3.33420932e-01 2.77189314e-02
      2.66760197e-02 6.11712690e-04 2.63865385e-03 0. 7.50104198e-03
      1.79176275e-02 3.33420932e-01 3.10625762e-01 6.13325946e-02
      6.16080984e-02 1.05264049e-03 1.29561464e-03 2.07819234e-04
      3.21792439e-02 1.34666786e-01 3.10625762e-01 3.10625762e-01
      1.66232162e-03 1.34575123e-04 1.36829840e-04 2.60586850e-03
      1.31105976e-02 7.83947185e-02 2.09628269e-01 3.10625762e-01
      3.10625762e-01 9.52907279e-03 1.20212017e-02 1.76802816e-04
      3.41445161e-03 3.68726876e-04 1.73697378e-02 4.61659580e-02
      3.10625762e-01 3.10625762e-01 6.53253868e-04 3.80169338e-04
      6.35062170e-04 1.01540901e-01 2.15909764e-01 1.54542729e-01
      2.53958911e-01 3.10625762e-01 3.10149759e-01 2.83755898e-03
      1.08063885e-03 2.29840726e-03 1.03144320e-02 2.46036462e-02
      4.07715328e-02 7.31207058e-02 3.10149759e-01 3.10149759e-01
      3.57661843e-02 2.12404374e-02 3.56969088e-02 4.61596958e-02
      4.45530862e-02 5.08982688e-02 3.14500742e-02 3.10149759e-01
      1.54140458e-01 8.23341124e-03 9.15617403e-03 2.14733649e-02
      2.57841587e-01 3.10149759e-01 1.32185444e-01 1.73486724e-01
      1.76102847e-01 2.47520462e-01 1.89479485e-01 1.65567070e-01
      2.47491449e-01 3.10149759e-01 1.82950288e-01 1.67000219e-02
      1.02584502e-02 1.10376708e-01 3.16338629e-01 1.16952710e-01
      5.97149208e-02 2.43679062e-02 2.73750219e-02 9.69329402e-02
      1.19330354e-01 9.32751149e-02 3.16338629e-01 3.16338629e-01
      1.62901655e-01 8.16743597e-02 2.82288482e-03 3.96498200e-03
      5.60424477e-02 1.03890404e-01 1.27575859e-01 3.16338629e-01
      3.16338629e-01 1.69600010e-01 1.19897254e-01 1.54349849e-01
      1.73847243e-01 6.62418082e-02 3.16035226e-02 4.12684232e-02
      1.84328899e-01 3.16338629e-01 5.97943887e-02 3.42699885e-02
      8.98891035e-03 1.35349017e-02 1.87829398e-02 1.03678979e-01
      1.66178212e-01 3.16338629e-01 3.49538416e-01 3.36994901e-02
      1.54284490e-02 5.04873984e-04 2.27149716e-03 7.51631276e-04
      2.58972384e-02 5.18677123e-02 3.37624967e-01 3.49538416e-01
      8.97338206e-04 8.71607976e-04 4.83463344e-04 2.31047813e-03
      1.53113564e-04 2.47184411e-02 1.73857391e-01 3.49538416e-01
      3.49538416e-01 9.43867024e-03 5.76569233e-03 1.09366549e-03
      2.75075040e-03 2.75855302e-03 5.37995882e-02 8.26965421e-02
      3.21238488e-01 3.49538416e-01 8.70297605e-04 3.36903089e-04
      7.76551838e-04 3.81799787e-03 0. 4.39164601e-03 2.77111307e-02
      3.49538416e-01 3.38816643e-01 3.23252864e-02 3.03474888e-02
      2.27353964e-02 7.48109370e-02 9.62196514e-02 5.80702424e-02
      1.96914539e-01 3.38816643e-01 3.38816643e-01 4.75863032e-02
      6.03053235e-02 4.88176495e-02 2.37854972e-01 2.30932221e-01
      6.70998916e-02 4.27439585e-02 2.26383686e-01 3.38816643e-01
      4.33738194e-02 3.54000628e-02 2.10402273e-02 5.26099391e-02
      4.35568988e-02 1.19543998e-02 2.98990328e-02 3.38816643e-01
      3.38816643e-01 6.34058863e-02 7.50136375e-02 5.27996644e-02
      1.64444163e-01 1.09462157e-01 1.76197924e-02 9.68275126e-03
      1.06953077e-01 1.13027409e-01 5.62321953e-03 4.68258187e-03
      8.99518374e-03 7.33271763e-02 9.49812084e-02 1.47520795e-01
      4.43314731e-01 1.67487994e-01 4.64908361e-01 1.75715238e-02
      5.11367479e-03 1.01239374e-02 5.89869656e-02 9.00898576e-02
      2.43240759e-01 4.64908361e-01 4.64908361e-01 1.97925102e-02
      2.83299154e-03 2.27401106e-04 2.07581185e-03 1.82142444e-02
      4.78346512e-04 1.15419901e-03 3.43737169e-03 1.92103647e-02
      2.05841754e-02 7.28150224e-03 7.47510348e-04 3.03619495e-03
      1.32287713e-02 2.71432288e-03 7.44631398e-04 2.96194339e-03
      1.70542952e-02 4.88352925e-01 1.18026957e-02 3.54701327e-03
      2.84228963e-03 2.19151340e-02 5.84640400e-03 3.51655260e-02
      1.95534274e-01 4.88352925e-01 4.88352925e-01 8.72903503e-03
      8.89934879e-03 6.55912969e-04 2.38115434e-02 0. 2.88044382e-03
      1.62649783e-03 4.88352925e-01 7.93800596e-03 1.42506231e-03
      1.64140295e-03 1.29194988e-03 5.11157792e-03 9.00771061e-04
      9.26784414e-04 6.04866014e-04 7.56451162e-03 6.42308174e-03
      8.07872450e-04 2.56321765e-03 2.98142259e-04 6.49794610e-03 0.
      6.38195488e-04 2.57533917e-04 6.59805257e-03 3.45583916e-01
      2.02916726e-03 3.52865458e-03 0. 1.63264330e-02 1.88647490e-03
      1.69953350e-02 3.72136235e-02 2.75605232e-01 2.53767043e-01
      1.95573270e-03 2.58222804e-03 6.45978609e-03 3.45583916e-01
      3.45583916e-01 2.23798901e-01 2.67690390e-01 2.82326937e-01
      4.48360620e-03 8.58299492e-04 1.87462580e-03 0. 1.01523492e-02
      9.83959064e-04 3.78535991e-03 2.04920187e-03 4.77703009e-03
      1.10029057e-01 1.37657896e-02 1.44833187e-02 3.31833586e-02
      3.45583916e-01 3.45583916e-01 9.78774205e-02 4.80958745e-02
      1.72959492e-01 5.36784716e-02 9.47016943e-03 1.12021463e-02
      2.03677751e-02 2.77327389e-01 2.77327389e-01 6.91363588e-02
      5.18420450e-02 6.47570044e-02 1.19737461e-01 1.25834659e-01
      1.26015022e-01 1.65036112e-01 2.77327389e-01 2.77327389e-01
      1.69373564e-02 4.22087964e-03 4.99729961e-02 2.65343934e-01
      2.24033371e-02 1.83159057e-02 1.96492784e-02 2.53162533e-01
      2.77327389e-01 8.57678130e-02 4.02707793e-02 2.35858500e-01
      2.77327389e-01 9.63637903e-02 9.40361246e-02 6.65586814e-02
      2.77327389e-01 2.77327389e-01 4.65326458e-02 2.09225696e-02
      2.55325586e-01 2.97897309e-01 2.76696682e-01 2.37147346e-01
      2.97897309e-01 2.97897309e-01 2.97897309e-01 7.59553025e-03
      1.65265109e-02 1.08675934e-01 2.97897309e-01 1.99414250e-02
      1.48439594e-02 1.79699138e-02 4.54742275e-02 1.58367753e-02
      6.75726235e-02 1.08610414e-01 2.48419210e-01 2.80329555e-01
      1.32070452e-01 1.38816655e-01 1.29133984e-01 2.97897309e-01
      2.97897309e-01 1.73038442e-03 2.03859108e-03 1.28178611e-01
      5.16406912e-03 3.63591989e-03 4.85745305e-03 5.39916195e-03
      3.08899321e-02 6.71099452e-03 2.15753540e-03 2.00117403e-03
      6.16908679e-03 4.86248702e-01 3.61575210e-03 9.70289484e-03
      9.36843269e-03 2.77155768e-02 9.29816440e-03 1.23908885e-01
      1.69034615e-01 4.86248702e-01 4.86248702e-01 1.85058918e-03
      1.16014213e-03 9.16833896e-03 4.60306630e-02 0. 2.04995591e-02
      2.38017812e-02 4.86248702e-01 1.17401239e-02 2.11353134e-03
      4.88859741e-03 1.87252054e-03 1.21053485e-02 1.90751569e-04
      7.17664277e-03 3.95732094e-03 1.16895558e-02 1.38665298e-02
      1.29593129e-04 5.36813459e-04 3.61684407e-03 1.63625982e-02 0.
      4.88216430e-03 3.39364284e-03 1.39065105e-02 5.32524943e-01
      8.75828862e-02 5.45357913e-02 2.24530697e-02 8.74995962e-02
      4.27946588e-03 1.01315295e-02 1.51388636e-02 5.32524943e-01
      5.32524943e-01 1.40322715e-01 1.30383909e-01 7.78345764e-02
      1.43373176e-01 5.50216995e-03 6.85870927e-03 6.91072457e-03
      2.40804672e-01 1.71285402e-02 5.40095475e-03 1.54212397e-03
      4.51356452e-03 2.58698110e-02 2.85297720e-04 6.12949894e-04
      2.12983438e-03 1.63486227e-02 2.42952928e-02 1.17354123e-02
      6.12547295e-03 1.05308900e-02 2.65325252e-02 3.66811379e-04
      1.96774941e-04 1.27911987e-03 2.21950840e-02 7.16740172e-03
      8.89150775e-04 6.96611241e-04 2.46928306e-04 5.85093861e-03
      5.30986756e-04 6.01602136e-04 5.34351158e-04 6.19645882e-03
      4.45548557e-02 1.87477760e-03 1.72017538e-03 1.42498966e-03
      3.87325766e-03 2.84643320e-05 1.20213802e-03 3.97083262e-04
      3.06182895e-02 4.05741423e-01 3.18914503e-01 1.66573241e-01
      8.86146054e-02 1.00118898e-01 4.25751656e-02 3.84884439e-02
      2.19267490e-03 1.15464412e-01 4.18387085e-01 4.18387085e-01
      3.66973341e-01 4.30621319e-02 3.37762795e-02 2.00924817e-02
      3.07150818e-02 2.23823055e-03 4.18387085e-01 6.20200410e-02
      4.55336092e-04 4.50987107e-04 3.91655543e-04 2.09796801e-03 0.
      5.52632904e-04 1.52787927e-03 3.18727233e-02 6.13340959e-02
      8.63857451e-04 4.04084101e-04 0. 3.53813195e-03 6.45606196e-04
      1.40674645e-03 1.10826129e-02 4.36257981e-02 4.25815433e-01
      1.50780410e-01 5.81032597e-02 1.27556629e-03 3.82075668e-03
      3.86446074e-04 2.29700971e-02 4.84602526e-02 4.25815433e-01
      4.25815433e-01 9.79344361e-03 2.98338719e-02 3.98578326e-04
      7.55548012e-03 1.44855154e-03 2.20068902e-01 4.25815433e-01
      4.25815433e-01 1.75859258e-02 1.54935452e-03 1.24577957e-03
      1.24128757e-03 7.41683505e-03 1.51262118e-03 3.40131181e-03
      1.05972253e-02 1.99929345e-02 1.82162911e-01 3.45179662e-02
      4.65354025e-02 1.03284657e-01 2.41397023e-01 2.34220073e-01
      5.89149445e-02 7.97706768e-02 1.72257602e-01 3.04764003e-01
      2.06609387e-02 5.28248027e-02 2.02488992e-03 9.50341299e-03
      1.44268665e-03 2.61524230e-01 3.23578775e-01 3.23578775e-01
      3.23578775e-01 3.09677292e-02 5.56281693e-02 8.17357078e-02
      2.23367542e-01 1.72481865e-01 1.32443652e-01 3.23578775e-01
      3.23578775e-01 2.53390312e-01 4.65815961e-02 5.86275458e-02
      1.12117961e-01 2.43119001e-01 2.53390312e-01 7.51173794e-02
      1.19056545e-01 2.53390312e-01 2.53390312e-01 6.69158325e-02
      6.85276538e-02 6.77869469e-02 1.94207907e-01 1.36513427e-01
      3.31704281e-02 6.13982417e-02 2.53390312e-01 2.53390312e-01
      3.85441035e-02 8.20044726e-02 1.03548549e-01 2.45543912e-01
      1.97139680e-01 5.55225536e-02 1.43320203e-01 2.53390312e-01
      2.53390312e-01 1.28976583e-01 1.80565849e-01 9.55422521e-02
      1.94378734e-01 1.11260243e-01 2.68156417e-02 1.05044596e-01
      2.22995445e-01 1.27911180e-01 3.92146371e-02 3.87254059e-02
      2.93901600e-02 1.03130296e-01 2.43617129e-02 7.46882171e-04
      2.49445043e-03 7.86263794e-02 5.96796088e-02 2.35219533e-03
      2.16980092e-03 1.13593717e-03 1.22862952e-02 1.64700462e-03
      8.83531233e-04 1.51546276e-03 4.02678400e-02 4.59415644e-01
      2.58488864e-01 2.99435526e-01 6.44859225e-02 9.24841687e-02
      4.26110774e-02 2.75106877e-02 7.50009418e-02 3.44323397e-01
      4.59415644e-01 8.66406560e-02 7.60744512e-02 4.34078043e-03
      1.86290275e-02 9.25282948e-03 5.71446121e-02 7.89553821e-02
      4.59415644e-01 5.32920882e-02 5.81234787e-03 3.75752710e-03 0.
      3.21246497e-03 1.18563254e-03 1.25687290e-03 4.45217220e-03
      4.18580398e-02 4.44938950e-02 6.27535954e-03 4.38104011e-03
      1.68834900e-04 4.35248017e-03 1.52438448e-03 3.65296798e-03
      1.63687300e-02 4.29069437e-02 3.97922546e-01 1.21150352e-01
      1.42568380e-01 1.01076148e-03 5.76250628e-03 2.65499763e-03
      1.39743313e-01 2.13240162e-01 3.97922546e-01 3.97922546e-01
      1.48098558e-01 1.84487760e-01 2.95529328e-03 1.50326462e-02
      1.11494996e-02 1.97701916e-01 3.97922546e-01 3.97922546e-01
      3.88238691e-02 2.91438634e-03 3.25595192e-03 5.62422967e-04
      5.87274274e-03 3.27353016e-04 3.43206641e-03 1.13020390e-02
      3.53444926e-02 2.00024545e-02 1.50423939e-03 1.41108490e-03
      3.67535657e-04 1.05298134e-02 0. 1.03556749e-03 3.46068584e-04
      1.87844392e-02 3.62735331e-01 3.45441699e-02 4.48427275e-02
      5.63460495e-03 1.93383992e-01 2.51151115e-01 2.67763436e-01
      3.62735331e-01 3.62735331e-01 3.01411569e-01 4.39825887e-03
      4.17166948e-03 6.89495821e-03 3.00301999e-01 3.05256903e-01
      1.83472604e-01 1.36050820e-01 3.09758157e-01 3.02002907e-01
      1.76280916e-01 9.76858735e-02 8.41478407e-02 1.15894467e-01
      6.69633150e-02 9.67643186e-02 5.92169613e-02 2.00181559e-01
      3.12044740e-01 3.12044740e-01 1.90418243e-01 3.79695855e-02
      3.58621962e-02 3.29006799e-02 1.02116629e-01 1.82697788e-01
      3.12044740e-01 1.72459707e-01 4.39901836e-02 2.85303220e-02
      4.01514471e-02 8.34569186e-02 5.49001358e-02 9.90374163e-02
      9.12005380e-02 2.22530559e-01 3.12044740e-01 6.68660253e-02
      4.21059169e-02 1.91548709e-02 2.92374007e-02 2.64202114e-02
      1.16509855e-01 2.87954122e-01 3.12044740e-01 3.41401815e-01
      8.11940208e-02 3.45611870e-02 2.08672936e-04 8.92928860e-04
      4.56630631e-04 2.41744407e-02 7.12448880e-02 3.34587902e-01
      3.41401815e-01 5.31522520e-02 7.55980685e-02 5.65132766e-04
      1.86656683e-03 8.02352559e-04 1.18201636e-01 2.97514677e-01
      3.41401815e-01 3.41401815e-01 1.32272197e-02 6.79419097e-03
      4.40568983e-04 3.58669669e-03 3.54880409e-04 2.21807063e-02
      8.35500807e-02 3.08451802e-01 3.41401815e-01 6.20662570e-02
      6.96901157e-02 8.72698263e-04 6.58140332e-03 8.14153173e-04
      2.31144279e-02 5.08890189e-02 2.50314295e-01 2.75845677e-01
      6.72481135e-02 1.01729721e-01 5.36518230e-04 1.20266830e-03
      2.59042339e-04 1.61902592e-01 2.84333110e-01 2.84333110e-01
      2.84333110e-01 2.34556720e-02 2.21672691e-02 1.00543303e-03
      7.70353479e-03 5.80907101e-03 1.16300844e-01 2.84333110e-01
      2.84333110e-01 2.82963574e-01 7.52876550e-02 9.47319493e-02
      5.18325600e-04 5.42059587e-03 7.97167304e-04 8.11217800e-02
      2.37666979e-01 2.22581953e-01 2.84333110e-01 2.52659786e-02
      1.98722053e-02 4.06687643e-04 4.64358041e-03 8.99686478e-04
      1.00759216e-01 2.84333110e-01 2.84333110e-01 3.21661562e-01
      6.59340844e-02 9.74127874e-02 1.91427972e-02 3.61263864e-02
      2.06108559e-02 2.90783793e-02 1.22204944e-01 3.21661562e-01
      3.21661562e-01 1.71594962e-01 2.84640998e-01 8.26191902e-02
      1.11190826e-01 9.13080201e-02 6.85698763e-02 1.69082478e-01
      2.06121430e-01 3.21661562e-01 8.03701356e-02 1.00039802e-01
      1.21819880e-02 1.65891070e-02 5.19964471e-03 2.30555981e-02
      9.56997499e-02 3.21661562e-01 3.21661562e-01 1.13229625e-01
      2.02188417e-01 4.32294570e-02 6.48411810e-02 7.20224380e-02
      7.53266662e-02 1.22443557e-01 1.35173976e-01 3.44176829e-01
      1.47218034e-01 2.11302027e-01 5.27524836e-02 8.71973634e-02
      1.15420975e-01 1.33909374e-01 1.50246516e-01 2.24507242e-01
      3.44176829e-01 3.96223143e-02 4.56262156e-02 3.71541944e-03
      1.89124998e-02 3.70459482e-02 7.80684128e-02 6.00123927e-02
      3.44176829e-01 2.73629278e-01 3.55608501e-02 7.24620223e-02
      2.30454393e-02 6.09223917e-02 1.17619522e-01 1.68706506e-01
      1.33171842e-01 2.30524614e-01 3.44176829e-01 5.51232882e-03
      9.96409450e-03 1.72596471e-03 1.95515733e-02 4.09999415e-02
      7.68544525e-02 3.65477242e-02 3.44176829e-01 3.46836597e-01
      3.73255536e-02 5.09761497e-02 6.71040092e-04 1.66131055e-03
      4.40590404e-04 5.60864061e-02 8.09200183e-02 3.46836597e-01
      3.46836597e-01 5.24886176e-02 6.92583919e-02 1.58466655e-03
      9.44450125e-03 8.42689723e-03 9.23538283e-02 2.17481956e-01
      3.46836597e-01 3.46836597e-01 2.64016329e-03 3.67337302e-03
      2.29524187e-04 4.90437681e-03 6.95792609e-04 4.34784871e-03
      6.64540706e-03 2.38545239e-01 3.46836597e-01 1.14409579e-02
      8.48906767e-03 7.77073205e-04 1.02482857e-02 4.55401652e-03
      3.44536714e-02 1.36769325e-01 3.46836597e-01 2.75667399e-01
      6.52241856e-02 3.67426239e-02 4.05358709e-02 2.26030678e-01
      2.15258524e-01 1.51401266e-01 2.75667399e-01 2.75667399e-01
      1.45283982e-01 5.43012507e-02 2.19205078e-02 6.02748133e-02
      2.75667399e-01 2.71169841e-01 9.31314602e-02 8.31436291e-02
      1.46433130e-01 2.75667399e-01 9.83219221e-02 3.63250636e-02
      5.80546558e-02 1.58286735e-01 1.00473702e-01 7.18949288e-02
      2.74664253e-01 2.75667399e-01 1.61659628e-01 9.91929471e-02
      3.47851068e-02 9.05891880e-02 2.45863572e-01 1.36351168e-01
      2.34168451e-02 5.58805019e-02 1.29404858e-01 2.34639332e-01
      1.65502112e-02 1.06004626e-02 3.83647121e-02 1.12087540e-01
      2.45535970e-02 1.07577495e-01 1.94751754e-01 3.69341671e-01
      3.77640575e-01 5.56729361e-03 1.41893711e-03 3.46525870e-02
      7.90261552e-02 6.71424903e-03 1.52153417e-01 3.77640575e-01
      3.77640575e-01 2.94793636e-01 3.39782126e-02 1.36571806e-02
      3.99319008e-02 1.22433215e-01 2.35394891e-02 6.68222383e-02
      2.63434529e-01 3.03404003e-01 5.94058260e-02 6.50372216e-03
      1.50599203e-03 1.61683839e-02 5.28377295e-02 1.01796938e-02
      1.30236903e-02 9.85354278e-03 5.85131161e-02 4.83553261e-01
      7.13612558e-03 3.72210075e-03 6.81430288e-03 5.19925393e-02
      1.74812798e-03 4.75683883e-02 1.72316536e-01 4.83553261e-01
      4.83553261e-01 1.01383500e-01 5.84787242e-02 1.04267253e-02
      8.77552778e-02 6.19332353e-03 1.73077919e-02 4.04772796e-02
      4.83553261e-01 1.05121462e-02 1.48005295e-03 5.22261835e-04
      2.72293482e-03 1.64566115e-02 1.16541865e-04 2.52447498e-04
      5.79947256e-04 1.03208805e-02 1.40391439e-02 4.49775532e-03
      5.19159203e-03 5.11131389e-03 2.53268890e-02 1.12816447e-03
      5.55384497e-04 4.95410617e-03 1.34711526e-02 3.93697083e-01
      1.50284871e-01 9.46649835e-02 7.28391716e-03 9.44797397e-02
      1.32884746e-02 7.97456056e-02 3.57720017e-01 3.93697083e-01
      3.93697083e-01 5.90907037e-02 2.91036293e-02 5.96476300e-03
      8.56484845e-02 1.29230535e-02 1.76439092e-01 3.93697083e-01
      3.93697083e-01 1.80848297e-02 6.46361010e-03 6.43505575e-03
      3.68691725e-03 2.86733434e-02 4.54745116e-03 1.94503600e-03
      5.09882765e-03 1.63922440e-02 1.52987624e-02 6.86650909e-03
      2.65096501e-03 7.85460754e-04 2.61749867e-02 3.48586449e-03
      1.33005502e-02 8.35833885e-03 1.57499723e-02 4.56475019e-01
      1.68921262e-01 1.58762321e-01 5.84513322e-03 6.22688718e-02
      1.02032013e-02 7.74609372e-02 1.51616171e-01 4.56475019e-01
      4.56475019e-01 2.00878695e-01 2.36178860e-01 3.89675552e-04
      1.24184303e-01 1.22569859e-01 1.56188235e-01 5.80649897e-02
      3.52300137e-01 1.20900013e-02 3.90036567e-03 3.52434115e-03
      3.89675552e-04 1.63733792e-02 1.69729150e-03 1.93321984e-02
      9.63221025e-03 1.40541354e-02 3.07772681e-02 2.71300948e-03
      2.51186360e-03 2.59783701e-05 3.76017801e-02 7.35492958e-03
      1.39324293e-02 7.16730533e-03 3.66865844e-02 4.67961848e-01
      2.68622637e-02 3.72272916e-02 0. 1.04949251e-01 1.43658638e-01
      2.36332953e-01 7.37085640e-02 4.67961848e-01 4.67961848e-01
      6.37555169e-03 7.65322708e-03 0. 8.16480890e-02 4.84375991e-02
      1.07593097e-01 3.50916237e-02 4.67961848e-01 1.80385429e-02
      1.12929079e-03 1.88947981e-03 0. 2.85569336e-02 1.92160322e-03
      2.75332597e-03 1.40582502e-03 2.04789788e-02 1.05346711e-02
      1.03641127e-03 2.33968091e-03 0. 2.45025903e-02 0. 1.05966919e-03
      3.54123738e-04 1.04819294e-02 4.69888598e-01 1.03352005e-02
      9.99509729e-03 2.41396273e-03 6.71693087e-02 2.94280937e-03
      1.15376839e-04 1.68268743e-03 4.69888598e-01 4.69888598e-01
      3.11999992e-02 2.70233024e-02 1.41080646e-02 6.48036227e-02
      4.44061495e-03 7.35804513e-02 3.06987733e-01 4.69888598e-01
      1.10701816e-02 1.68673415e-03 2.58189184e-03 1.09725574e-03
      2.10379548e-02 0. 0. 3.79414676e-04 1.09409299e-02 1.48903159e-02
      3.74692236e-03 8.53279140e-03 6.41275616e-03 1.82643030e-02 0.
      6.80466706e-04 2.95731775e-03 1.49637377e-02 3.71747822e-01
      2.18088120e-01 8.26561749e-02 1.26975596e-01 1.58590749e-01
      1.96276885e-02 1.37754172e-01 3.71747822e-01 3.71747822e-01
      3.71747822e-01 2.24390030e-01 7.51999915e-02 1.85986638e-01
      2.82263130e-01 4.26459983e-02 3.15897427e-02 1.18259899e-01
      3.71747822e-01 1.95369534e-02 1.86417205e-03 5.77339623e-03
      7.52916094e-03 2.47412734e-02 0. 2.01318576e-03 5.17371995e-03
      1.96624100e-02 2.05043945e-02 8.73300232e-05 9.80733777e-04
      1.84665434e-03 2.89443079e-02 0. 2.92824698e-03 2.46403762e-03
      2.05043945e-02 2.01408118e-01 1.95303687e-03 1.25741924e-03
      2.74428888e-03 1.67466979e-02 3.23680900e-02 1.33872792e-01
      2.86184609e-01 2.79682130e-01 3.61694098e-02 6.23807427e-04
      7.69967737e-05 8.58117710e-04 2.42490880e-02 3.80251780e-02
      9.84806269e-02 1.44541964e-01 6.09639063e-02 2.86184609e-01
      2.72770263e-02 1.28180138e-03 1.01019936e-02 7.21364319e-02
      1.78520203e-01 2.86184609e-01 2.86184609e-01 2.86184609e-01
      1.55833334e-01 5.32355495e-02 2.91414536e-03 4.98944595e-02
      2.60397911e-01 2.86184609e-01 2.86184609e-01 2.86184609e-01
      1.75733179e-01 5.04255034e-02 0. 0. 6.85923873e-03 7.36391693e-02
      4.98135835e-02 1.11005835e-01 4.59719822e-02 6.01081699e-02
      4.79614502e-03 0. 0. 1.58290123e-03 6.71271933e-03 2.50215991e-04
      1.78429845e-03 1.11087714e-03 4.91124578e-03 2.41440669e-01
      1.54624060e-01 1.44712813e-02 2.28307471e-01 4.32654440e-01
      4.32654440e-01 4.32654440e-01 4.32654440e-01 2.85795987e-01
      1.06464922e-02 0. 0. 5.59560582e-03 3.76679562e-02 1.41660795e-02
      5.71557460e-03 5.54784946e-03 1.52966529e-02 5.16602635e-01 0. 0.
      0. 0. 0. 0. 0. 5.16602635e-01 4.54535663e-01 0. 0. 0. 0. 0. 0. 0.
      4.54535663e-01 0. 0. 0. 0. 1.57990098e-01 0. 0. 0. 0. 0. 0. 0. 0.
      0. 0. 0. 0. 0. 3.18832248e-01 0. 0. 0. 0. 0. 0. 0. 3.18832248e-01
      6.20538235e-01 0. 0. 0. 0. 0. 0. 0. 6.20538235e-01 0. 0. 0. 0. 0.
      0. 0. 0. 0. 0. 0. 0. 0. 0. 0. 0. 0. 0. 6.33957982e-01 0. 0. 0. 0.
      0. 0. 0. 6.33957982e-01 2.87043184e-01 0. 0. 0. 0. 0. 0. 0.
      2.87043184e-01 0. 0. 0. 0. 0. 0. 0. 0. 0. 0. 0. 0. 0. 0. 0. 0. 0.
      0. 3.72197002e-01 0. 0. 0. 0. 0. 0. 0. 3.72197002e-01
      5.79609394e-01 0. 0. 0. 0. 0. 0. 0. 5.79609394e-01 0. 0. 0. 0. 0.
      0. 0. 0. 0. 0. 0. 0. 0. 0. 0. 0. 0. 0. 4.07557726e-01 0. 0. 0. 0.
      0. 0. 0. 4.07557726e-01 5.56075096e-01 0. 0. 0. 0. 0. 0. 0.
      5.56075096e-01 0. 0. 0. 0. 0. 0. 0. 0. 0. 0. 0. 0. 0. 0. 0. 0. 0.
      0. 2.75980860e-01 1.64831027e-01 9.80807021e-02 2.49944404e-02
      6.72083348e-02 9.54664126e-02 1.28121197e-01 2.09386840e-01
      2.75980860e-01 2.75980860e-01 1.79627031e-01 1.53095396e-02
      1.32624105e-01 2.75980860e-01 2.75980860e-01 1.83407098e-01
      2.17037886e-01 2.21895605e-01 2.75980860e-01 1.64553672e-01
      1.41317621e-01 1.39625333e-02 2.58725900e-02 7.15915579e-03
      9.36246011e-03 7.61686862e-02 2.48272240e-01 2.75980860e-01
      1.23244792e-01 1.49858557e-02 7.15642944e-02 8.84704292e-02
      4.48695198e-02 3.94657534e-03 4.11268091e-03 1.63738176e-01
      3.19059581e-01 3.19059581e-01 3.36896814e-02 3.19059581e-01
      3.19059581e-01 3.19059581e-01 2.14558154e-01 2.83985466e-01
      2.18244553e-01 6.49403548e-03 0. 0. 2.55676266e-03 2.61409897e-02
      1.04873860e-02 2.37510377e-03 2.19442882e-03 1.23128584e-02
      2.88286150e-01 2.21144900e-01 2.55600382e-02 2.05678374e-01
      3.04446548e-01 1.35531351e-01 6.86460640e-03 6.31183572e-03
      1.58424094e-01 3.19468603e-03 0. 0. 7.16999639e-04 1.01678194e-02
      2.13682395e-03 4.87299461e-04 3.39592778e-04 5.71187399e-03 0. 0.
      0. 0. 8.53531957e-01 0. 0. 0. 0. 0. 0. 0. 0. 0. 0. 0. 0. 0. 0. 0.
      0. 0. 4.73497748e-01 0. 0. 0. 0. 0. 0. 0. 0. 0. 0. 0. 0. 0. 0. 0.
      0. 0. 0. 0. 0. 0. 0. 0. 0. 0. 0. 0. 0. 0. 0. 0. 0. 0. 0. 0. 0. 0.
      0. 0. 0. 0. 0. 0. 0. 0. 0. 0. 0. 0. 0. 0. 0. 0. 0. 0. 0. 0. 0. 0.
      0. 0. 0. 0. 0. 0. 0. 0. 0. 0. 0. 0. 0. 0. 0. 0. 0. 0. 0. 0. 0. 0.
      0. 0. 0. 0. 0. 0. 0. 0. 0. 0. 0. 0. 0. 0. 0. 0. 0. 0. 0. 0. 0. 0.
      0. 0. 0. 0. 0. 0. 0. 0. 0. 0. 0. 0. 0. 0. 0. 0. 0. 0. 0. 0. 0. 0.
      0. 0. 0. 0. 0. 0. 0. 0. 0. 0. 0. 0. 0. 0. 0. 0. 0. 0. 0. 0. 0. 0.
      0. 0. 0. 0. 0. 0. 0. 0. 0. 0.</_>
    <_>
      6.53675618e-03 1.71317998e-03 1.70538377e-03 5.55157382e-03
      1.44389858e-02 0. 0. 4.94072796e-04 5.65623399e-03 3.34607601e-01
      1.94807157e-01 7.44912177e-02 2.53328472e-01 3.59692395e-01
      1.17506817e-01 5.26830517e-02 1.48753272e-02 1.21406190e-01
      7.59599870e-03 3.10183456e-03 2.47644330e-03 5.82821155e-03
      1.36130322e-02 0. 0. 1.09488377e-03 5.74680278e-03 2.81089336e-01
      1.43664658e-01 6.23071678e-02 2.32308507e-01 3.59692395e-01
      3.38458747e-01 2.98837900e-01 1.35173097e-01 3.25870186e-01
      3.16958755e-01 7.35012144e-02 2.13449746e-02 6.95741698e-02
      1.71222985e-01 3.16759385e-02 1.99967939e-02 6.69604586e-03
      1.48077160e-01 3.44857305e-01 3.28367501e-02 7.66449980e-03
      2.03775372e-02 4.05516848e-02 8.93946923e-03 8.74488708e-03
      4.14613076e-03 3.44857305e-01 3.44857305e-01 5.67845963e-02
      1.66577380e-02 6.62261844e-02 2.98881918e-01 9.36356410e-02
      1.05534673e-01 5.64714074e-02 3.24079037e-01 3.44857305e-01
      2.76057422e-02 5.71036572e-03 2.09357757e-02 6.99367821e-02
      2.62652114e-02 4.12300974e-02 2.90520880e-02 3.44857305e-01
      3.48749042e-01 2.84259819e-04 1.62848024e-04 0. 1.63322641e-03 0.
      7.69049686e-04 4.47723287e-04 3.48749042e-01 3.48749042e-01
      3.32880067e-04 1.11834168e-04 1.14315204e-04 2.26740236e-03
      2.27661119e-04 6.67522801e-03 9.01004951e-03 3.48749042e-01
      3.48749042e-01 3.59402649e-04 1.91199520e-04 0. 1.41646166e-03
      2.64892733e-04 1.00088865e-03 2.97430460e-03 3.48749042e-01
      3.48749042e-01 5.67055598e-04 4.62364260e-04 4.95365879e-04
      6.05488522e-03 7.38830771e-03 1.07621185e-01 1.08108222e-01
      3.48749042e-01 3.28810036e-01 1.61654403e-04 3.36221507e-04
      2.32314211e-04 4.23149765e-03 5.89323696e-04 8.69129505e-03
      1.10520292e-02 3.28810036e-01 3.28810036e-01 1.20374875e-03
      1.14111265e-03 1.16272691e-04 4.27136989e-03 4.15616785e-04
      1.58293417e-03 1.74155552e-03 3.28810036e-01 3.28810036e-01
      3.35222139e-04 4.86564939e-04 1.12939824e-03 4.08864915e-02
      4.06588577e-02 1.48852989e-01 1.69665650e-01 3.28810036e-01
      3.28810036e-01 2.35512778e-02 1.25895375e-02 3.14825177e-02
      2.15214133e-01 1.27894595e-01 5.37343994e-02 1.00036964e-01
      3.28810036e-01 3.39451432e-01 1.69342093e-03 7.82626565e-04
      5.70323667e-04 3.39482143e-03 2.04065131e-04 6.57835975e-04
      2.36702361e-03 3.39451432e-01 3.39451432e-01 8.89079936e-04
      1.21662444e-04 1.07388385e-03 2.97311437e-03 4.48537117e-04
      8.03095177e-02 1.22372009e-01 3.39451432e-01 3.39451432e-01
      5.19581065e-02 3.22149545e-02 4.97776493e-02 1.79038197e-01
      7.11815804e-02 3.54040414e-02 4.28018533e-02 3.29194546e-01
      3.39451432e-01 2.08012164e-02 1.46832289e-02 1.31426752e-02
      4.42666784e-02 1.48030594e-02 5.72547950e-02 8.65527913e-02
      3.39451432e-01 3.15631360e-01 1.14145142e-03 2.75493658e-04
      1.39403890e-03 1.74918165e-03 2.22144532e-04 7.97605515e-02
      1.17363095e-01 3.52511257e-01 3.52511257e-01 1.10235601e-03
      8.81385058e-04 8.20435816e-04 2.29531573e-03 3.67623506e-05
      1.10630244e-02 1.83774717e-02 3.52511257e-01 3.52511257e-01
      2.33576357e-04 2.48940167e-04 8.38963257e-04 2.67256168e-03
      2.67679570e-04 4.23867069e-02 6.67684302e-02 3.52511257e-01
      3.52511257e-01 2.04497119e-04 1.87829239e-04 3.85429885e-04
      1.18537259e-03 4.45599653e-05 5.47737628e-03 1.00486660e-02
      3.52511257e-01 3.31305832e-01 1.26742842e-02 2.94887763e-03
      1.08055836e-02 6.24834299e-02 3.42721008e-02 4.74513844e-02
      1.08855888e-02 3.31305832e-01 2.02587545e-01 1.92836635e-02
      7.18215993e-03 3.16368751e-02 1.89790234e-01 9.98140424e-02
      9.70970094e-02 1.79858934e-02 2.38008603e-01 3.31305832e-01
      7.87043869e-02 1.29131805e-02 4.69592363e-02 1.16542295e-01
      4.33809347e-02 4.21484485e-02 7.65708182e-03 3.31305832e-01
      3.31305832e-01 1.35687485e-01 3.90118100e-02 1.30798563e-01
      3.31305832e-01 1.22209519e-01 8.04103091e-02 1.23617221e-02
      3.01768601e-01 3.07223536e-02 3.05255875e-03 2.01890548e-03
      2.32604728e-03 6.88356981e-02 0. 0. 2.98554706e-03 2.92584039e-02
      4.13980007e-01 2.56899986e-02 1.11624468e-02 5.85439242e-02
      4.13980007e-01 4.13980007e-01 4.13980007e-01 3.43844384e-01
      4.13980007e-01 1.26633886e-02 0. 0. 0. 2.62566414e-02 0. 0. 0.
      1.26633886e-02 4.96246777e-02 1.59764092e-03 8.07051139e-04 0.
      6.36321306e-02 0. 0. 0. 4.93495092e-02 4.57564682e-01
      8.95197596e-03 2.25912756e-03 1.76540036e-02 2.75344610e-01
      1.18310541e-01 1.89280599e-01 1.24169677e-01 4.57564682e-01
      4.57564682e-01 6.40681805e-03 2.92399176e-03 7.25361798e-03
      7.05410093e-02 3.21311690e-02 6.87030554e-02 5.95975444e-02
      4.57564682e-01 1.67573504e-02 7.72956817e-04 7.92165054e-04 0.
      5.66315791e-03 0. 0. 0. 1.66520402e-02 2.73964982e-02
      6.99435361e-04 1.40169612e-03 0. 6.21544104e-03 0. 0. 0.
      2.73486264e-02 4.49009567e-01 1.01217348e-03 2.52589607e-03 0.
      9.66178998e-03 1.11317413e-03 3.70938191e-03 7.60276662e-03
      4.49009567e-01 4.49009567e-01 2.03811587e-03 3.61474976e-03
      7.65816309e-04 1.69088766e-02 2.54017524e-02 3.07946235e-01
      2.97706127e-01 4.49009567e-01 1.65288597e-02 4.98294714e-04
      1.49108609e-03 0. 4.43546241e-03 7.42116026e-05 7.78749236e-04
      1.98336289e-04 1.71731133e-02 3.33067663e-02 1.11458229e-03
      1.90611277e-03 0. 3.24252471e-02 1.11317413e-03 7.16439774e-03
      7.52293924e-03 4.03554179e-02 2.85305411e-01 4.43825778e-03
      9.95712448e-03 7.09238183e-03 1.49723858e-01 8.41836408e-02
      1.14977099e-01 1.43108860e-01 3.00344586e-01 2.17064217e-01
      4.22627069e-02 5.72059155e-02 9.71047059e-02 3.00344586e-01
      3.00344586e-01 8.09662864e-02 1.25643373e-01 2.12335601e-01
      2.97868792e-02 3.43030691e-02 7.99085498e-02 4.37954664e-02
      2.00990707e-01 7.21934959e-02 5.12584113e-02 3.71026061e-02
      4.51966599e-02 6.03847057e-02 1.99752450e-01 3.00344586e-01
      2.62361795e-01 3.00344586e-01 2.24397480e-01 1.74470082e-01
      9.63363424e-02 8.76352862e-02 2.97712445e-01 1.03774883e-01
      1.20059624e-01 1.58917814e-01 2.97712445e-01 2.19107375e-01
      1.09628156e-01 1.04944550e-01 1.39344856e-01 2.97712445e-01
      5.40900417e-02 6.33677170e-02 5.82793802e-02 1.61115065e-01
      6.11982159e-02 5.04596531e-02 5.39288335e-02 2.97712445e-01
      4.51681688e-02 2.37611830e-01 2.95291543e-01 2.97712445e-01
      2.97712445e-01 1.61413103e-01 1.06390901e-01 6.33179694e-02
      5.51493801e-02 3.35980132e-02 7.11949095e-02 9.48440358e-02
      1.10548757e-01 2.38331541e-01 4.97185253e-02 2.74321251e-02
      2.43740864e-02 2.61406098e-02 4.96703714e-01 1.17417937e-03
      2.97784479e-03 8.86836555e-03 2.92552020e-02 3.64004355e-03
      4.87288320e-03 3.76841985e-03 4.96703714e-01 4.96703714e-01
      4.11597313e-04 1.03136466e-03 1.13828795e-03 6.21900382e-03
      2.58656044e-04 3.83904437e-04 3.28157330e-04 4.96703714e-01
      4.87213731e-02 1.91806955e-03 6.27008872e-03 8.91398638e-03
      3.12957503e-02 2.85114185e-03 2.59874435e-03 8.97596125e-04
      3.48584615e-02 3.54582965e-02 4.20270168e-04 1.21138629e-03
      2.62681802e-04 6.44729007e-03 2.39568937e-04 4.18829557e-04
      5.58741413e-05 3.37034278e-02 4.31105763e-01 1.37480497e-01
      2.19118707e-02 6.72403127e-02 9.59041640e-02 2.25087050e-02
      8.20243265e-03 7.32502158e-05 4.31105763e-01 4.31105763e-01
      2.53302544e-01 7.15725869e-02 1.90679207e-01 3.25956225e-01
      5.86521402e-02 1.04407556e-02 7.88103673e-04 4.31105763e-01
      3.43575031e-02 4.92043946e-05 1.47238301e-04 0. 1.65212073e-03
      4.09678498e-04 2.57600739e-04 0. 3.46143916e-02 1.97695196e-02
      1.59032017e-04 3.23924294e-04 0. 4.43158904e-03 2.92060751e-04
      1.42783698e-04 0. 1.94483288e-02 9.88418143e-03 8.45496485e-04
      2.53003952e-03 0. 1.86090916e-02 4.55396669e-03 2.94949254e-03
      4.67369379e-03 1.08025465e-02 3.13372165e-02 1.33855622e-02
      3.51807177e-02 0. 4.72693332e-02 1.00187259e-02 2.17791237e-02
      1.51080992e-02 3.10673490e-02 5.40690161e-02 2.91201845e-02
      1.03858737e-02 1.53430793e-02 1.19197689e-01 2.97594480e-02
      1.96652599e-02 3.55448499e-02 5.27337678e-02 4.68695313e-01
      4.68695313e-01 4.36725438e-01 6.99204132e-02 3.01804423e-01
      6.30553141e-02 7.18629733e-02 9.89378020e-02 4.68695313e-01
      1.02758389e-02 3.57372197e-03 7.94183183e-03 5.69033611e-04
      1.51246842e-02 5.11308142e-04 4.19678446e-03 2.94757891e-03
      9.22591984e-03 1.38152419e-02 1.17675087e-03 2.75590061e-03
      1.25187414e-03 2.23790910e-02 8.14003113e-04 2.42815167e-03
      1.78390881e-03 1.35919638e-02 3.52101535e-01 3.52101535e-01
      2.23097920e-01 1.17310928e-02 6.94559813e-02 3.14983330e-03
      8.00745636e-02 3.22191447e-01 3.52101535e-01 3.52101535e-01
      1.88291013e-01 1.09181508e-01 1.11435149e-02 8.30733255e-02
      6.89767115e-03 1.78324625e-01 3.52101535e-01 3.52101535e-01
      3.01714130e-02 2.51458085e-04 1.17886066e-03 8.72204662e-04
      4.98519614e-02 6.90907612e-03 1.62763521e-03 2.34065158e-03
      3.16034406e-02 9.00700781e-03 0. 0. 0. 2.27129459e-01
      3.14048934e-03 0. 2.10307742e-04 9.29513760e-03 4.59569514e-01
      9.75363050e-03 3.00965514e-02 1.41386827e-02 2.41012052e-01
      5.01247607e-02 3.74814302e-01 4.59569514e-01 4.59569514e-01
      1.38279915e-01 6.57194993e-03 7.45718507e-03 2.75774300e-03
      1.43076673e-01 2.07199603e-02 1.24882564e-01 4.85582761e-02
      2.12631673e-01 2.61075608e-02 5.19901700e-02 1.19259402e-01
      6.01695925e-02 2.02898026e-01 1.02338903e-01 1.73612297e-01
      1.39780670e-01 7.83385932e-02 2.84732908e-01 3.00970435e-01
      3.00970435e-01 3.00970435e-01 3.00970435e-01 2.11748868e-01
      3.00970435e-01 3.00970435e-01 3.00970435e-01 1.36433467e-02
      1.24620378e-03 3.05370754e-03 5.66760486e-04 2.08528880e-02
      1.10030891e-02 3.10835410e-02 3.67409214e-02 2.86992341e-02
      1.58781305e-01 9.00568739e-02 9.79597643e-02 3.12524922e-02
      5.56129813e-02 2.49909926e-02 1.13319114e-01 1.04412429e-01
      1.81841150e-01 1.96603730e-01 3.07544351e-01 3.07544351e-01
      3.07544351e-01 3.07544351e-01 8.53813812e-02 1.87943697e-01
      1.03059374e-01 2.46326208e-01 2.01919451e-02 1.01123780e-01
      1.14801042e-01 1.18808143e-01 2.23955929e-01 1.44046145e-02
      5.25641721e-04 3.87057982e-04 2.25752201e-02 3.07544351e-01
      1.25142589e-01 1.41251013e-01 5.34255542e-02 6.36252686e-02
      1.06729465e-02 3.85972261e-02 3.08463182e-02 2.09696919e-01
      3.07544351e-01 3.28320228e-02 4.65107486e-02 1.77336801e-02
      2.94630677e-02 3.08540184e-03 1.12334055e-04 4.97645990e-04
      3.07544351e-01 7.86851067e-03 3.86044453e-03 1.15385493e-02
      2.46850098e-03 1.84637494e-02 2.45122588e-03 4.09416622e-03
      4.46690898e-03 8.08252394e-03 9.02903080e-03 2.88794120e-03
      3.48145328e-03 9.06097586e-04 1.17305284e-02 3.71219101e-03
      5.15857525e-03 4.06228146e-03 8.94943904e-03 4.97099727e-01
      3.64612881e-03 8.16219579e-03 8.29446537e-04 2.21648254e-02
      2.79411231e-03 3.70885921e-03 6.80160290e-03 4.97099727e-01
      4.97099727e-01 7.19130319e-03 1.46002695e-02 1.10629862e-02
      3.27593945e-02 1.84551645e-02 4.61204164e-02 3.15027684e-02
      4.97099727e-01 1.76515505e-02 2.56948150e-03 1.20853772e-03
      1.61412009e-03 1.68663319e-02 1.46238180e-03 1.51468313e-03
      4.30862943e-04 1.72374491e-02 6.06464408e-03 0. 4.64623663e-05
      9.50380127e-05 8.56031012e-03 0. 0. 0. 6.06464408e-03
      4.96112198e-01 6.48663891e-03 1.26104262e-02 1.88034996e-02
      2.55666763e-01 1.32329330e-01 3.18084151e-01 1.45833939e-01
      4.96112198e-01 2.51894325e-01 0. 5.20668458e-04 1.06501672e-03
      2.46014982e-01 9.74187180e-02 2.06805691e-01 6.58572912e-02
      3.39539587e-01 6.28431840e-03 8.14733002e-03 1.58405723e-03
      1.62886605e-02 5.79734780e-02 1.47591624e-02 5.13284141e-03
      2.58894777e-03 4.79404768e-03 3.07048470e-01 3.07048470e-01
      9.33888853e-02 1.93756849e-01 2.51900971e-01 1.19335517e-01
      1.13246523e-01 2.42219511e-02 2.33990222e-01 8.73042550e-03
      7.57111562e-03 3.87591054e-03 1.85229965e-02 9.90107581e-02
      2.62797680e-02 1.66851804e-02 1.86563749e-03 7.65612395e-03
      3.07048470e-01 3.07048470e-01 6.91720471e-02 2.38777637e-01
      3.07048470e-01 2.47799262e-01 3.07048470e-01 7.95036927e-02
      3.07048470e-01 3.16083610e-01 1.86096147e-01 6.21478297e-02
      3.55851948e-02 3.34844105e-02 1.99884791e-02 4.79133800e-02
      1.00638226e-01 2.11068824e-01 3.16083610e-01 6.68024421e-02
      2.78568696e-02 1.02233514e-03 2.76828408e-02 2.69414019e-02
      8.68051127e-02 1.87372163e-01 3.16083610e-01 3.16083610e-01
      1.45450205e-01 3.72928642e-02 4.43763100e-02 5.97350374e-02
      4.29308973e-02 9.40080881e-02 8.18836018e-02 3.16083610e-01
      3.16083610e-01 5.39338998e-02 1.89420730e-02 4.82044299e-04
      4.15831544e-02 5.09870648e-02 1.56787872e-01 2.68702060e-01
      3.16083610e-01 3.01216811e-01 5.65205375e-03 5.21952333e-03
      6.80359034e-03 1.31689265e-01 1.48628101e-01 2.00472265e-01
      1.79280117e-01 3.01216811e-01 3.22778001e-02 4.60959133e-03
      3.17130121e-03 7.57224718e-03 8.31986144e-02 7.84313977e-02
      7.53770396e-02 5.03684506e-02 5.29589653e-02 3.01216811e-01
      6.69318065e-02 4.22965996e-02 6.97975606e-02 2.16271847e-01
      3.01216811e-01 3.01216811e-01 3.01216811e-01 3.01216811e-01
      1.38781503e-01 5.40738814e-02 3.81870195e-02 9.02751237e-02
      1.74195379e-01 1.87789753e-01 1.53432697e-01 1.46653816e-01
      1.56235263e-01 3.31307538e-02 3.32332286e-03 5.65517787e-03
      1.14884125e-02 8.06353912e-02 2.20126081e-02 7.25975679e-03
      5.58818271e-03 3.77938300e-02 2.21765727e-01 1.11428589e-01
      2.07349494e-01 2.05194592e-01 4.24396962e-01 1.30767360e-01
      5.09038642e-02 7.42758112e-03 8.57839882e-02 6.99913651e-02
      1.51812453e-02 2.15162858e-02 1.01678379e-01 2.27065176e-01
      9.94190648e-02 4.66474928e-02 3.03011499e-02 7.40967616e-02
      1.46682069e-01 6.68586269e-02 1.35667309e-01 1.78033784e-01
      4.24396962e-01 3.83462906e-01 2.95814663e-01 9.21379477e-02
      2.16513798e-01 2.62293816e-01 3.55071165e-02 6.88542053e-02
      5.64538613e-02 2.26586565e-01 3.67903039e-02 1.95705146e-02
      4.52621980e-03 1.13641575e-01 3.43974978e-01 2.43297387e-02
      4.85815704e-02 3.17493118e-02 1.13302484e-01 2.09920369e-02
      1.72214005e-02 1.09661203e-02 3.43974978e-01 2.73863643e-01
      2.07793675e-02 4.86169569e-02 4.98840697e-02 3.43974978e-01
      1.04498789e-01 1.01885945e-01 4.01631892e-02 2.60538280e-01
      3.43974978e-01 1.56220142e-02 3.60735171e-02 3.06475330e-02
      1.83134750e-01 5.77365868e-02 1.29041895e-01 1.27386287e-01
      3.43974978e-01 3.40557456e-01 1.00085395e-03 8.52469879e-04
      1.14115840e-03 4.13563754e-03 5.42769616e-04 5.85409021e-03
      1.19680259e-02 3.40557456e-01 3.40557456e-01 1.87094638e-03
      1.89568009e-03 3.33087426e-03 4.61884998e-02 1.37527697e-02
      2.62226164e-02 1.57783423e-02 3.40557456e-01 3.40557456e-01
      9.12275631e-04 7.07619067e-04 1.43753365e-03 6.99267071e-03
      1.40759291e-03 1.16103463e-01 1.76931456e-01 3.40557456e-01
      3.40557456e-01 2.75893919e-02 6.92610955e-03 2.05171183e-02
      8.81399661e-02 1.44533990e-02 6.61924034e-02 8.28180239e-02
      3.40557456e-01 3.25512975e-01 6.57528359e-03 3.17609124e-03
      1.33612128e-02 3.25512975e-01 9.24906433e-02 1.30757108e-01
      4.78719138e-02 3.25512975e-01 6.03826866e-02 2.78475531e-03
      9.73538787e-04 7.81164505e-03 3.21888447e-01 6.75101951e-02
      8.01628157e-02 2.17409469e-02 9.03491378e-02 3.25512975e-01
      1.44267127e-01 3.01509015e-02 1.37659490e-01 3.25512975e-01
      9.51569453e-02 8.12203810e-02 2.21704226e-02 3.25512975e-01
      1.19240165e-01 8.26394334e-02 1.37568135e-02 1.01530328e-01
      3.25512975e-01 6.95094094e-02 4.62065861e-02 1.00219380e-02
      6.69784024e-02 2.39952952e-02 6.35422580e-03 1.11975698e-02
      1.12393210e-02 1.39602572e-01 3.49577963e-02 3.71044986e-02
      5.24407532e-03 2.34323461e-02 4.45448726e-01 1.17130712e-01
      4.37469780e-02 1.71035841e-01 4.45448726e-01 3.20607126e-01
      4.45448726e-01 1.71460092e-01 4.45448726e-01 3.65925464e-03
      3.91464477e-04 5.83115907e-04 0. 7.01186713e-03 2.50978069e-03
      1.84771453e-03 7.64099474e-04 3.50525603e-03 1.57157350e-02
      1.17025513e-03 2.28732033e-03 1.63068340e-04 2.33312473e-02
      5.96270524e-03 8.09503999e-03 4.14326787e-03 1.56230088e-02
      4.23099667e-01 3.12542990e-02 1.19183110e-02 3.00688427e-02
      7.56239817e-02 4.91071157e-02 1.29021451e-01 5.13940006e-02
      4.23099667e-01 4.23099667e-01 3.20889726e-02 1.87194850e-02
      2.00763997e-03 5.01186587e-02 5.93306012e-02 2.70076454e-01
      4.11357313e-01 4.23099667e-01 3.80341825e-03 6.82712824e-04
      2.02303333e-03 1.22387617e-04 3.78291192e-03 4.50626481e-04
      1.43100787e-03 6.49611990e-04 3.81768215e-03 1.75346881e-02
      3.06462077e-03 2.51224265e-03 8.95006524e-04 5.70538640e-03
      1.40592118e-03 3.76108510e-04 1.09230657e-03 1.72051080e-02
      3.44713181e-01 1.43261015e-01 8.99047554e-02 1.38391167e-01
      1.61283895e-01 2.46393949e-01 3.44713181e-01 3.44713181e-01
      3.44713181e-01 3.37954253e-01 1.18793279e-01 9.05752331e-02
      1.78058982e-01 1.86398298e-01 1.71576187e-01 1.36878595e-01
      1.67221397e-01 3.19881648e-01 4.47266288e-02 6.93376269e-03
      5.14601823e-03 3.81805073e-03 5.74819185e-03 3.61514767e-03
      2.28406760e-04 2.16522394e-03 3.84160504e-02 2.88748462e-02
      7.30353314e-03 1.10249426e-02 3.65713122e-03 8.66871513e-03
      2.57676933e-03 2.71571305e-04 1.74571783e-03 2.45601144e-02
      1.92365795e-01 6.80388063e-02 1.24409042e-01 2.17058301e-01
      3.68196636e-01 1.70577511e-01 8.29957798e-02 8.27235803e-02
      1.98965505e-01 2.26943359e-01 3.21756490e-02 3.71367931e-02
      4.73084450e-02 3.68196636e-01 3.68196636e-01 3.68196636e-01
      2.06301883e-01 3.68196636e-01 7.07983896e-02 2.38819551e-02
      6.30343556e-02 1.58251785e-02 6.18769601e-02 1.80131234e-02
      2.60884478e-03 9.74587444e-03 7.49328434e-02 6.20534010e-02
      5.81748784e-03 2.42728349e-02 9.42500215e-03 6.20411187e-02
      1.97233167e-02 1.30486004e-02 9.98700317e-03 6.61309063e-02
      3.60079110e-01 3.63695459e-03 2.32834183e-03 1.13256117e-02
      3.03081274e-01 1.28795043e-01 1.73701718e-01 8.86105821e-02
      4.10381943e-01 4.10381943e-01 2.05832650e-03 2.54501798e-03
      1.21014751e-02 1.49485275e-01 7.30740577e-02 2.87815034e-01
      3.18074554e-01 4.10381943e-01 1.20919328e-02 4.87898331e-04
      1.04956678e-03 9.95028880e-04 8.81050993e-03 1.44722615e-03
      1.08377030e-03 1.28149707e-03 1.26786008e-02 2.93270722e-02
      3.93869414e-04 1.07102888e-03 1.93812780e-03 5.85240219e-03
      2.49945605e-03 6.48290245e-03 5.73949004e-03 3.40863019e-02
      4.29002732e-01 1.06092403e-03 1.82572880e-03 1.11235445e-03
      8.22358206e-03 4.33881907e-03 2.43695229e-01 3.53513807e-01
      4.29002732e-01 4.29002732e-01 5.96813038e-02 1.23648541e-02
      3.35463695e-02 6.65879250e-02 5.83698275e-03 1.02626845e-01
      1.58342272e-01 4.29002732e-01 4.83118556e-02 6.08012371e-04
      9.78987198e-04 2.58331711e-04 1.36240118e-03 1.69301813e-03
      6.83741784e-03 9.03578475e-03 5.51258251e-02 1.16903298e-01
      3.37088900e-03 3.11686832e-04 0. 2.65235966e-03 7.36758579e-04
      3.01544531e-03 5.10087982e-03 1.04638055e-01 4.04822648e-01
      3.13547134e-01 5.20230494e-02 2.29270920e-01 4.04822648e-01
      2.71303318e-02 1.42892078e-03 3.06879263e-03 4.04822648e-01
      2.89220124e-01 1.91218987e-01 2.39086766e-02 1.72742128e-01
      4.04822648e-01 2.00488400e-02 0. 1.08937337e-03 9.54391211e-02
      1.29835814e-01 1.21153099e-02 0. 0. 6.27656514e-03 0.
      8.30899342e-04 1.51844055e-03 8.87640342e-02 2.80923061e-02
      8.13058298e-03 0. 0. 3.92203499e-03 0. 0. 4.95169777e-04
      1.29123386e-02 9.78689566e-02 0. 0. 0. 0. 0. 0. 0. 9.78689566e-02
      6.82122052e-01 0. 0. 0. 0. 0. 0. 0. 6.82122052e-01 0. 0. 0. 0. 0.
      0. 0. 0. 0. 0. 0. 0. 0. 0. 0. 0. 0. 0. 3.95019948e-01 0. 0. 0. 0.
      0. 0. 0. 3.95019948e-01 5.70516765e-01 0. 0. 0. 0. 0. 0. 0.
      5.70516765e-01 0. 0. 0. 0. 0. 0. 0. 0. 0. 0. 0. 0. 0. 0. 0. 0. 0.
      0. 4.50410008e-01 0. 0. 0. 0. 0. 0. 0. 4.50410008e-01
      5.36726475e-01 0. 0. 0. 0. 0. 0. 0. 5.36726475e-01 0. 0. 0. 0. 0.
      0. 0. 0. 0. 0. 0. 0. 0. 0. 0. 0. 0. 0. 5.76762021e-01 0. 0. 0. 0.
      0. 0. 0. 5.76762021e-01 3.92191976e-01 0. 0. 0. 0. 0. 0. 0.
      3.92191976e-01 0. 0. 0. 0. 0. 0. 0. 0. 0. 0. 0. 0. 0. 0. 0. 0. 0.
      0. 4.90586489e-01 0. 0. 0. 0. 0. 0. 0. 4.90586489e-01
      4.93600667e-01 0. 0. 0. 0. 0. 0. 0. 4.93600667e-01 0. 0. 0. 0. 0.
      0. 0. 0. 0. 0. 0. 0. 0. 0. 0. 0. 0. 0. 5.21222115e-01 0. 0. 0. 0.
      0. 0. 0. 5.21222115e-01 4.51400757e-01 0. 0. 0. 0. 0. 0. 0.
      4.51400757e-01 0. 0. 0. 0. 0. 0. 0. 0. 0. 0. 0. 0. 0. 0. 0. 0. 0.
      0. 6.66879117e-01 0. 0. 0. 0. 0. 0. 0. 6.66879117e-01
      8.99324417e-02 0. 0. 0. 0. 0. 0. 0. 8.99324417e-02 0. 0. 0. 0. 0.
      0. 0. 0. 0. 0. 0. 0. 0. 0. 0. 0. 0. 0. 0. 0. 0. 0. 0. 0. 0. 0. 0.
      0. 0. 0. 0. 0. 0. 0. 0. 0. 0. 0. 0. 0. 0. 0. 0. 0. 0. 0. 0. 0. 0.
      0. 0. 0. 0. 0. 0. 0. 0. 0. 0. 0. 0. 0. 0. 0. 0. 0. 0. 0. 0. 0. 0.
      0. 0. 0. 0. 0. 0. 0. 0. 0. 0. 0. 0. 0. 0. 0. 0. 0. 0. 0. 0. 0. 0.
      0. 0. 0. 0. 0. 0. 0. 0. 0. 0. 0. 0. 0. 0. 0. 0. 0. 0. 0. 0. 0. 0.
      0. 0. 0. 0. 0. 0. 0. 0. 0. 0. 0. 0. 0. 0. 0. 0. 0. 0. 0. 0. 0. 0.
      0. 0. 0. 0. 0. 0. 0. 0. 0. 0. 0. 0. 0. 0. 0. 0. 0. 0. 0. 0. 0. 0.
      0. 0. 0. 0. 0. 0. 0. 0. 0. 0. 0. 0. 0. 0. 0. 0. 0. 0. 0. 0. 0. 0.
      0. 0. 0. 0. 0. 0. 0. 0. 0. 0. 0. 0. 0. 0. 0. 0. 0. 0. 0. 0. 0. 0.
      0. 0. 0. 0. 0. 0. 0. 0. 0. 0. 0. 0. 0. 0. 0. 0. 0. 0. 0. 0. 0. 0.
      0. 0. 0. 0. 0. 0. 0. 0. 0. 0. 0. 0. 0. 0. 0. 0. 0. 0. 0. 0. 0. 0.
      0. 0. 0. 0. 0. 0. 0. 0. 0. 0. 0. 0. 0. 0. 0. 0. 0. 0. 0. 0. 0. 0.
      0.</_>
    <_>
      4.89061117e-01 4.79244620e-01 0. 0. 1.68735851e-02 2.41841804e-02
      4.28579114e-02 5.35168014e-02 2.60634840e-01 4.89061117e-01
      4.30242181e-01 0. 0. 3.52285206e-02 1.22679281e-03 5.99757477e-04
      3.62377684e-03 1.14529081e-01 1.03830643e-01 2.31497698e-02 0. 0.
      7.27041764e-03 7.16956798e-04 9.46462678e-04 3.59573076e-03
      3.89382653e-02 2.98741460e-02 6.50778878e-03 0. 0. 6.50788657e-03
      5.57633059e-04 2.72617035e-04 8.70378281e-04 1.47602139e-02
      4.33319777e-01 4.33319777e-01 0. 0. 1.10588357e-01 1.02864241e-03
      5.02886309e-04 7.34173274e-03 2.03369081e-01 4.33319777e-01
      2.32402980e-01 0. 0. 2.50115007e-01 2.26688161e-01 2.27274433e-01
      3.36112440e-01 2.10195184e-01 1.41052967e-02 1.50760869e-03 0. 0.
      1.24911694e-02 6.85761624e-05 3.35257537e-05 4.18729061e-04
      1.28767500e-02 1.48896230e-02 1.07344962e-03 0. 0. 2.76271533e-02
      6.50893571e-03 1.55849254e-03 5.56138949e-03 1.95184648e-02
      4.27691489e-02 7.95494672e-03 0. 6.16286939e-04 7.07590505e-02
      2.09847063e-01 2.95397252e-01 3.08642179e-01 7.84372836e-02
      1.69843659e-02 8.06730532e-05 2.41404152e-04 3.84109840e-03
      3.33882183e-01 3.41461241e-01 3.41461241e-01 3.41461241e-01
      1.14845097e-01 7.32131675e-03 2.75500242e-05 0. 0. 5.57989627e-02
      4.98747602e-02 3.63016166e-02 4.47336063e-02 2.15259418e-02
      9.10612941e-03 2.43836494e-05 8.79647196e-05 1.83317007e-03
      3.41461241e-01 3.41461241e-01 1.29191786e-01 1.45240322e-01
      4.15157974e-02 6.45348802e-03 5.43403905e-04 3.32748657e-03
      1.27976304e-02 3.15502018e-01 2.72564232e-01 1.50609821e-01
      1.30705193e-01 3.05207204e-02 8.03404078e-02 9.89468396e-02
      1.13762490e-01 1.49325237e-01 3.56366009e-01 2.48075575e-01
      4.14875057e-03 1.13187218e-02 1.99254379e-02 3.49549204e-03
      5.50080510e-03 1.41350161e-02 1.44777233e-02 3.56366009e-01
      3.56366009e-01 4.75783683e-02 3.96943614e-02 1.00791622e-02
      5.15163178e-03 3.20936628e-02 1.19457342e-01 1.15751207e-01
      3.56366009e-01 3.56366009e-01 2.02579401e-03 8.79249128e-04
      4.02541319e-03 2.30325788e-01 1.80212989e-01 1.39757499e-01
      1.42747030e-01 2.99940020e-01 2.91434765e-01 1.68600902e-01
      1.19101062e-01 8.47027674e-02 2.83301502e-01 1.34469330e-01
      1.68213069e-01 2.99940020e-01 1.16091922e-01 1.56829998e-01
      2.99940020e-01 2.17624918e-01 1.26083359e-01 3.08805723e-02
      2.62646824e-02 8.77601057e-02 1.07014664e-01 2.99940020e-01
      2.99940020e-01 2.15220973e-02 2.59369090e-02 1.58057902e-02
      1.11068770e-01 2.73934454e-02 3.44261602e-02 3.39987949e-02
      1.13550588e-01 5.44533357e-02 3.32910158e-02 5.34105748e-02
      4.03538682e-02 3.70851785e-01 1.71612144e-01 1.61590740e-01
      3.05452347e-01 8.43525901e-02 1.57660544e-01 3.70851785e-01
      2.42451012e-01 2.63431042e-01 3.70851785e-01 3.66927207e-01
      4.61282535e-03 3.72626027e-03 1.29535571e-02 5.33152372e-02
      1.11793950e-01 9.45841819e-02 2.35897034e-01 1.49215326e-01
      3.36372182e-02 3.25878300e-02 2.89759487e-02 7.73409614e-03
      4.85569937e-03 1.59484688e-02 4.12358716e-02 6.72202483e-02
      1.54080421e-01 3.70741859e-02 1.07368059e-03 8.15632113e-04
      1.93176023e-03 8.42174690e-04 3.41117848e-03 1.16804270e-02
      5.28270192e-02 4.73149925e-01 4.73149925e-01 1.34169427e-03
      4.62859753e-04 7.64841493e-03 1.57350150e-03 2.91104568e-03
      2.03207764e-03 1.13607101e-01 4.73149925e-01 3.50152612e-01
      2.07916857e-03 5.01175178e-03 9.87572148e-02 1.33526713e-01
      2.62584090e-01 1.46415994e-01 2.34037444e-01 1.01352021e-01
      2.71906685e-02 6.43568579e-04 1.06813786e-04 2.99299462e-03
      7.15227914e-04 1.63248018e-03 1.45250687e-03 2.63643563e-02
      4.17909399e-02 7.79058272e-03 7.25649239e-04 1.82923523e-03
      1.56109864e-02 6.28658105e-03 1.22932922e-02 1.73907112e-02
      3.20934840e-02 6.43909812e-01 0. 0. 0. 0. 0. 0. 0. 6.43909812e-01
      2.43746519e-01 0. 0. 0. 0. 0. 0. 0. 2.43746519e-01 0. 0. 0. 0. 0.
      0. 0. 0. 0. 0. 0. 0. 0. 0. 0. 0. 0. 0. 7.72393495e-02 0. 0. 0. 0.
      0. 0. 0. 7.72393495e-02 1.89157516e-01 0. 0. 0. 2.69070268e-01 0.
      0. 0. 1.89157516e-01 0. 0. 0. 0. 0. 0. 0. 0. 0. 0. 0. 0. 0.
      9.04697537e-01 0. 0. 0. 0. 2.37605884e-03 2.20119909e-04
      2.15173652e-03 8.28429984e-05 4.35856394e-02 1.73912179e-02
      1.28866220e-03 4.30648855e-04 2.63476814e-03 5.27429441e-03
      3.35354544e-03 3.03790420e-02 3.36524546e-02 4.12215054e-01
      4.12215054e-01 3.08934739e-03 1.00732152e-03 5.84345404e-03
      3.22400243e-03 2.68718554e-03 3.50786224e-02 2.72171423e-02
      7.74304047e-02 9.99816880e-03 4.24005091e-03 8.98764352e-04
      3.72055266e-03 5.03513329e-02 7.54919574e-02 4.12215054e-01
      4.07500565e-01 4.12215054e-01 3.54533255e-01 4.49754596e-02
      1.32715041e-02 3.91899459e-02 1.11146551e-03 8.63519590e-03
      3.84473167e-02 5.04110903e-02 3.23415250e-01 3.23415250e-01
      9.13188269e-04 2.58439337e-04 9.16586898e-04 3.62265506e-03
      6.36376515e-02 2.53607661e-01 2.25725472e-01 3.23415250e-01
      1.66645154e-01 7.69728504e-04 2.20882532e-04 7.90664577e-04
      4.43367437e-02 3.05287708e-02 2.20722184e-01 2.07382813e-01
      3.23415250e-01 2.42213264e-01 1.91410724e-02 1.77529752e-02
      3.34015861e-02 2.51139551e-02 4.15892676e-02 1.62394792e-01
      1.91563487e-01 3.23415250e-01 3.18248153e-01 8.46044905e-03
      1.50126740e-02 2.20168997e-02 1.59956552e-02 1.20708011e-01
      3.73409718e-01 3.73409718e-01 3.73409718e-01 3.08376431e-01
      1.35023938e-03 4.51226457e-04 3.66976555e-03 7.16228364e-03
      3.56684020e-03 1.17819561e-02 3.74603085e-02 1.44626960e-01
      3.33331749e-02 8.27125390e-04 2.76410807e-04 3.90375592e-03
      2.18165815e-02 8.97352770e-02 2.81732887e-01 2.82442570e-01
      3.73409718e-01 3.66994798e-01 3.32087628e-03 5.01797721e-03
      7.89549015e-03 6.07399689e-03 3.79226007e-03 8.47289525e-03
      1.76464319e-02 4.51297611e-02 2.11228104e-03 0. 0. 2.66719609e-03
      6.90898776e-01 0. 0. 0. 1.51296899e-01 0. 0. 0. 6.40102923e-01
      1.80903822e-01 0. 0. 0. 0. 0. 0. 0. 1.80903822e-01 0. 0. 0. 0.
      1.07878938e-01 0. 0. 0. 0. 0. 0. 0. 0. 0. 0. 0. 0. 0.
      4.98383790e-01 0. 0. 0. 0. 0. 0. 0. 4.98383790e-01 4.74797964e-01
      0. 0. 0. 0. 0. 0. 0. 4.74797964e-01 0. 0. 0. 0. 0. 0. 0. 0. 0. 0.
      0. 0. 0. 0. 0. 0. 0. 0. 0. 0. 0. 0. 0. 0. 0. 0. 0. 0. 0. 0. 0. 0.
      0. 0. 0. 0. 0. 0. 0. 0. 0. 0. 0. 0. 0. 0. 0. 0. 0. 0. 0. 0. 0. 0.
      0. 0. 0. 0. 0. 0. 0. 0. 0. 0. 0. 0. 0. 8.50012779e-01 0. 0. 0. 0.
      0. 0. 0. 0. 0. 0. 0. 0. 0. 0. 0. 0. 0. 5.12047231e-01 0. 0. 0. 0.
      2.88030715e-03 2.12262943e-03 3.31698135e-02 4.40353490e-02
      1.57379031e-01 4.22226526e-02 2.25312207e-02 6.01757271e-03
      7.59432139e-03 2.87586570e-01 1.11615613e-01 2.87586570e-01
      2.87586570e-01 2.87586570e-01 2.87586570e-01 2.68450856e-01
      1.28683746e-01 2.61969328e-01 2.31359154e-03 2.15612643e-04
      2.38043116e-03 8.09611939e-03 6.88442439e-02 3.27913575e-02
      2.54403446e-02 9.17497464e-03 1.00541478e-02 2.87586570e-01
      4.18673865e-02 5.85701875e-02 5.94245940e-02 2.86989540e-01
      1.86439112e-01 2.48753592e-01 1.54365137e-01 2.87586570e-01
      2.26794258e-01 4.51568477e-02 1.89693540e-01 1.44427031e-01
      3.03909689e-01 1.87535137e-01 1.00918256e-01 8.81305039e-02
      1.45712480e-01 8.62418413e-02 9.49220918e-03 2.34805681e-02
      4.63625491e-02 3.16214889e-01 3.16214889e-01 5.65783381e-02
      6.39804155e-02 6.77053109e-02 2.44946465e-01 2.59595271e-02
      2.11246219e-02 1.87861547e-02 2.66328365e-01 2.81084925e-01
      1.19906500e-01 8.26006830e-02 1.38825938e-01 1.33496746e-01
      2.54757684e-02 3.50537896e-02 8.76518041e-02 3.16214889e-01
      3.16214889e-01 1.07566223e-01 5.55492975e-02 6.17357008e-02
      9.81848035e-03 5.97760407e-03 1.29747689e-02 3.42604816e-02
      4.79832888e-01 4.79832888e-01 2.54583657e-02 1.90959517e-02
      9.82697401e-03 3.09808133e-03 3.98506905e-04 1.73389461e-04
      5.76368999e-04 4.01950963e-02 9.09580663e-03 0. 0. 2.57124240e-03
      8.27347264e-02 3.50184925e-02 6.97193518e-02 2.10325703e-01
      4.79832888e-01 4.79832888e-01 6.12000339e-02 1.63759124e-02
      2.59728357e-02 2.05512787e-03 3.11806740e-04 7.46577978e-04
      6.27912814e-03 8.77784789e-02 1.84253976e-02 3.07948241e-04
      1.02910875e-04 2.05106800e-03 0. 0. 0. 0. 5.35795629e-01 0. 0. 0.
      0. 0. 0. 0. 0. 0. 0. 0. 0. 0. 0. 0. 0. 0. 8.05546880e-01 0. 0. 0.
      0. 0. 0. 0. 0. 0. 0. 0. 0. 0. 0. 0. 0. 0. 0. 0. 0. 0. 0. 0. 0. 0.
      0. 0. 0. 0. 0. 0. 0. 0. 0. 0. 0. 0. 0. 0. 0. 0. 0. 0. 0. 0. 0. 0.
      0. 0. 0. 0. 0. 0. 0. 0. 0. 0. 0. 0. 0. 0. 0. 0. 0. 0. 0. 0.
      6.47389770e-01 0. 0. 0. 0. 0. 0. 0. 6.47389770e-01 2.21441537e-01
      0. 0. 0. 0. 0. 0. 0. 2.21441537e-01 0. 0. 0. 0. 0. 0. 0. 0. 0. 0.
      0. 0. 0. 9.05143023e-01 0. 0. 0. 0. 0. 0. 0. 0. 0. 0. 0. 0. 0. 0.
      0. 0. 0. 3.30448747e-01 0. 0. 0. 0. 3.30486931e-02 5.80531487e-04
      1.73716492e-03 0. 7.17747584e-02 2.97127999e-02 6.13637492e-02
      3.35155353e-02 6.61722496e-02 4.33353186e-01 9.61058959e-02
      2.74157263e-02 1.05163539e-02 4.33353186e-01 1.96522921e-01
      4.00806993e-01 4.26059693e-01 4.33353186e-01 9.32936836e-03 0. 0.
      0. 1.03721973e-02 0. 0. 0. 9.32936836e-03 4.05633301e-02
      4.51081293e-03 1.34980381e-02 2.42685108e-03 1.45435691e-01
      7.94558506e-03 0. 0. 4.05633301e-02 1.80823207e-01 2.09687613e-02
      1.35912970e-02 1.58861410e-02 3.32404822e-01 3.32404822e-01
      1.68560192e-01 4.76603471e-02 9.77579802e-02 3.32404822e-01
      1.31603912e-01 1.89110652e-01 3.24386358e-01 3.32404822e-01
      3.32404822e-01 2.93330222e-01 6.35039359e-02 1.79385394e-01
      4.69032750e-02 4.09380626e-03 5.15622133e-03 2.24389951e-03
      2.50988249e-02 4.48722318e-02 5.35421185e-02 1.29680727e-02
      3.95860448e-02 1.99277833e-01 6.28664494e-02 6.66454062e-02
      5.67162074e-02 4.63502184e-02 6.34166896e-02 9.57892612e-02
      2.85575464e-02 1.13397278e-01 4.05808747e-01 2.10245997e-01
      3.35023195e-01 4.05808747e-01 4.05808747e-01 4.05808747e-01
      1.59554958e-01 3.31007577e-02 1.56340137e-01 3.66727496e-03
      3.29565653e-03 4.78612911e-03 2.42280308e-02 1.32922545e-01
      1.23356385e-02 1.19740108e-03 4.00150398e-04 3.62436427e-03
      2.12805599e-01 1.15996011e-01 1.20566465e-01 1.26418307e-01
      9.26855505e-02 2.63462663e-02 5.07111512e-02 1.73251387e-02
      9.78563875e-02 2.02973955e-03 2.56328844e-03 2.17551296e-03
      6.46635797e-03 1.61627699e-02 0. 2.76323350e-04 9.23423941e-05
      1.99636468e-03 0. 0. 0. 0. 4.63848084e-01 0. 0. 0. 0. 0. 0. 0. 0.
      0. 0. 0. 0. 0. 3.14676315e-01 0. 0. 0. 1.23482771e-01 0. 0. 0.
      3.14676315e-01 5.13683200e-01 0. 0. 0. 0. 0. 0. 0. 5.13683200e-01
      0. 0. 0. 0. 0. 0. 0. 0. 0. 0. 0. 0. 0. 0. 0. 0. 0. 0.
      6.59603477e-01 0. 0. 0. 0. 0. 0. 0. 6.59603477e-01 1.97469488e-01
      0. 0. 0. 0. 0. 0. 0. 1.97469488e-01 4.26460840e-02 4.49050363e-04
      1.34372991e-03 0. 1.16424218e-01 0. 0. 0. 4.26460840e-02
      1.01932697e-02 0. 0. 0. 3.11302617e-02 0. 0. 0. 1.01932697e-02
      4.18075174e-01 3.01529080e-01 1.73576817e-01 1.04166651e-02
      4.18075174e-01 1.53692380e-01 2.64540493e-01 1.42129779e-01
      4.18075174e-01 2.11138114e-01 1.72707736e-02 0. 0. 1.36346877e-01
      1.19538516e-01 1.20245673e-01 6.83068335e-02 3.48207921e-01 0. 0.
      0. 0. 3.26549411e-02 0. 0. 0. 0. 0. 0. 0. 0. 0. 0. 0. 0. 0.
      6.59051657e-01 0. 0. 0. 3.01622599e-01 0. 0. 0. 6.59051657e-01
      9.67500955e-02 0. 0. 0. 0. 0. 0. 0. 9.67500955e-02 0. 0. 0. 0. 0.
      0. 0. 0. 0. 1.84869424e-01 0. 0. 0. 0. 0. 0. 0. 1.84869424e-01 0.
      0. 0. 0. 0. 0. 0. 0. 0. 0. 0. 0. 0. 9.33741927e-01 0. 0. 0. 0.
      6.66265488e-02 0. 0. 0. 3.46886786e-03 0. 0. 0. 6.66265488e-02
      2.26025596e-01 0. 0. 0. 5.33896163e-02 0. 0. 0. 2.26025596e-01
      5.68900332e-02 1.04074059e-02 1.84739684e-03 0. 1.10520639e-01 0.
      2.11893977e-03 7.08112377e-04 5.48614338e-02 3.86288941e-01
      3.86288941e-01 3.86288941e-01 3.38135064e-01 3.86288941e-01
      5.58789745e-02 9.18207131e-03 3.06848716e-03 3.86288941e-01
      1.35081466e-02 0. 0. 0. 8.92588682e-03 0. 1.69186198e-04
      5.65390510e-05 1.35081466e-02 1.42731108e-02 0. 0. 0.
      1.06239533e-02 0. 3.72209644e-04 2.43126095e-04 1.42977135e-02
      3.78582686e-01 3.58965665e-01 1.69196233e-01 6.27038851e-02
      6.69969991e-02 1.24712940e-02 1.75992250e-02 6.48969561e-02
      2.47965798e-01 3.78582686e-01 2.91259706e-01 6.33605719e-02
      1.44701246e-02 1.09432563e-01 2.03387275e-01 2.47931316e-01
      3.59640479e-01 3.78582686e-01 3.16271000e-02 1.93804080e-05
      5.79933512e-05 0. 2.17249580e-02 0. 2.79451930e-03 2.10498692e-03
      3.18697654e-02 3.11514158e-02 7.70149054e-04 1.98082370e-03
      2.27236864e-03 4.30888794e-02 0. 8.53171851e-03 3.76201374e-03
      3.12408078e-02 3.39672178e-01 1.49734661e-01 7.34555768e-03 0.
      2.34649658e-01 3.39672178e-01 3.39672178e-01 3.39672178e-01
      3.39672178e-01 3.39672178e-01 1.77730799e-01 5.68419732e-02
      1.37842856e-02 1.52316794e-01 5.98182045e-02 6.35189861e-02
      1.98011905e-01 3.39672178e-01 8.75925720e-02 5.93659701e-03
      9.46602039e-03 1.50322570e-02 1.77745521e-01 0. 1.09247705e-02
      3.65086878e-03 8.65090415e-02 2.30131187e-02 2.37687817e-03
      1.69592816e-03 3.46898241e-03 7.22715780e-02 0. 0. 0.
      2.25206017e-02 3.77475053e-01 2.43032575e-01 2.11345360e-01
      1.04340352e-01 3.77475053e-01 1.35803312e-01 1.08956054e-01
      3.77475053e-01 3.77475053e-01 2.31232390e-01 4.24535014e-02
      3.55175063e-02 3.15595865e-02 3.46267939e-01 9.05355439e-03
      1.42204575e-02 3.56278359e-03 2.23844633e-01 1.37105972e-01
      6.23514578e-02 6.90841377e-02 9.47108492e-02 4.76566926e-02
      9.83450785e-02 1.26411334e-01 6.67973235e-02 1.68870956e-01
      1.27017692e-01 1.97522156e-02 2.61182711e-03 2.55633076e-03
      1.31553346e-02 6.87830970e-02 9.57579762e-02 6.08619042e-02
      1.35289684e-01 2.68278569e-01 1.26439393e-01 2.68278569e-01
      2.68278569e-01 1.20569721e-01 1.77927524e-01 2.68278569e-01
      2.37817571e-01 2.68278569e-01 2.68278569e-01 8.22228119e-02
      7.94230402e-03 1.40886717e-02 4.33002561e-02 2.68278569e-01
      2.68278569e-01 2.68278569e-01 2.68278569e-01 1.20910160e-01
      1.33105256e-02 0. 3.28281685e-03 3.43064703e-02 4.27674837e-02
      7.48800263e-02 6.79802895e-02 1.28250554e-01 4.27583419e-03
      6.84462022e-04 0. 1.87723374e-03 8.98738392e-03 4.00726404e-03
      4.68467642e-03 1.29199587e-03 3.65501223e-03 3.85927200e-01
      5.82036264e-02 1.22801270e-04 1.06427250e-02 2.43757352e-01
      3.85927200e-01 3.85927200e-01 3.85927200e-01 3.85927200e-01
      2.93567404e-02 8.80022650e-04 0. 4.73837601e-03 1.64682388e-01
      1.79393962e-01 2.02318937e-01 1.94502875e-01 7.02084303e-02 0. 0.
      0. 0. 2.09270157e-02 0. 0. 0. 0. 0. 0. 0. 0. 1.69873849e-01 0. 0.
      0. 0. 3.32691669e-02 0. 0. 0. 9.38498020e-01 1.50224656e-01 0. 0.
      3.32691669e-02 1.05399359e-02 0. 0. 0. 2.35711709e-01 0. 0. 0.
      1.05399359e-02 5.97944204e-03 3.11257597e-03 1.11291173e-03 0.
      1.39180943e-02 0. 5.93184144e-04 1.98231719e-04 5.41154807e-03
      1.03214502e-01 1.81136355e-01 2.08713040e-01 3.17804694e-01
      4.38421577e-01 7.51761273e-02 2.57046428e-03 8.59004038e-04
      3.93910147e-02 6.03322079e-03 2.67597055e-03 1.62888912e-03 0.
      2.24152673e-02 0. 1.20222056e-03 6.33047195e-04 5.63945062e-03
      5.55168279e-02 1.27925485e-01 1.74600124e-01 4.15228158e-01
      4.38421577e-01 4.38421577e-01 3.62913171e-03 2.21503223e-03
      2.29789242e-02 2.37412035e-01 1.51260555e-01 9.50258449e-02
      1.24895118e-01 1.41098201e-01 4.08358462e-02 2.31820643e-02
      2.61260848e-02 5.57317808e-02 2.75197595e-01 1.34364948e-01
      4.41550948e-02 5.01756817e-02 5.95981143e-02 1.61614999e-01
      2.23286450e-01 1.70968458e-01 1.66361645e-01 1.47686914e-01
      1.14526205e-01 8.58032480e-02 1.81912944e-01 2.75197595e-01
      2.75197595e-01 3.50390896e-02 2.38250699e-02 2.87540667e-02
      2.75197595e-01 1.22510709e-01 4.41555977e-02 8.59200433e-02
      2.75197595e-01 2.75197595e-01 2.75197595e-01 2.14796305e-01
      1.72916427e-01 3.02069992e-01 7.40836188e-02 6.54686650e-04
      2.46741274e-05 1.77216232e-02 1.09045736e-01 1.51132196e-01
      1.21807151e-01 1.32681444e-01 3.02069992e-01 7.25720823e-02
      4.00957884e-03 6.13551179e-04 8.22332874e-03 7.83347338e-02
      1.24077804e-01 1.02759942e-01 1.46344036e-01 3.02069992e-01
      1.34224564e-01 6.95104129e-04 1.05917105e-03 2.22483426e-02
      1.36470780e-01 2.21465394e-01 1.88511476e-01 2.18771651e-01
      3.02069992e-01 1.40161887e-01 1.48697163e-03 2.30455116e-04
      2.85488628e-02 2.49813840e-01 3.02069992e-01 2.67179996e-01
      2.91682899e-01 2.00704679e-01 4.91677336e-02 5.21559967e-03
      1.49161834e-03 1.09771974e-02 7.07513839e-02 9.68821421e-02
      6.58736303e-02 7.94031322e-02 3.46940279e-01 7.93405101e-02
      1.13826292e-03 5.19538182e-04 5.43930568e-03 1.01438332e-02
      1.99416261e-02 3.08102183e-02 8.67506415e-02 3.85803044e-01
      2.10522890e-01 2.36332137e-03 4.66664875e-04 1.68752763e-02
      1.90549806e-01 2.92440087e-01 2.15031296e-01 2.55169958e-01
      3.85803044e-01 3.21569383e-01 5.24674216e-03 7.79388705e-03
      9.77625176e-02 1.36361390e-01 1.11107625e-01 9.47296247e-02
      2.53270835e-01 1.80493981e-01 7.33507052e-02 2.74716705e-01
      2.74716705e-01 1.07904784e-01 5.13439849e-02 1.11317068e-01
      1.22639976e-01 1.63120255e-01 2.74716705e-01 5.23895621e-02
      7.86935631e-03 1.75134968e-02 1.15447067e-01 2.74716705e-01
      2.74716705e-01 2.74716705e-01 2.45017126e-01 2.74716705e-01
      1.05161093e-01 7.10935071e-02 8.93186554e-02 8.78774747e-02
      9.33438316e-02 1.11338131e-01 7.79587254e-02 1.13537692e-01
      2.74716705e-01 2.72856772e-01 4.15572561e-02 6.22819401e-02
      1.77731335e-01 9.83300656e-02 6.73775971e-02 8.29417408e-02
      7.82516599e-02 7.35522360e-02 1.32807000e-02 4.28824639e-03
      1.78474095e-02 2.77713388e-01 2.77713388e-01 2.77713388e-01
      2.77713388e-01 9.44952369e-02 7.15142768e-03 9.50312940e-04
      1.89569686e-03 1.01081282e-02 2.68226475e-01 2.27185935e-01
      9.69940946e-02 8.63513798e-02 1.96226165e-02 2.77713388e-01
      2.40412161e-01 1.14765443e-01 2.08811209e-01 2.77713388e-01
      2.77713388e-01 9.31878388e-02 1.01956539e-01 3.17203216e-02
      4.99548726e-02 6.81775138e-02 6.83306307e-02 1.55953497e-01
      2.77713388e-01 2.28151396e-01 3.21551375e-02 2.20037308e-02
      6.80616451e-03 4.53217402e-02 1.56356825e-03 4.67879232e-03
      1.06342072e-02 5.02636552e-01 2.99997181e-01 1.09968930e-02
      3.67496861e-03 4.53217402e-02 1.43305724e-02 0. 0. 0.
      3.79863195e-02 0. 0. 0. 1.43305724e-02 1.70968801e-01
      3.43984994e-03 4.36481275e-02 2.59490758e-01 5.02636552e-01
      4.93334115e-01 5.84298186e-02 1.95262302e-02 1.70968801e-01
      5.49280196e-02 0. 0. 0. 1.11232765e-01 0. 1.22665223e-02
      4.09925915e-03 5.49280196e-02 5.78389782e-03 4.28955012e-04
      1.28359685e-03 0. 1.88299660e-02 1.20117597e-03 1.77568849e-03
      1.40569964e-03 5.99287916e-03 2.07478516e-02 7.18741678e-03
      1.28993690e-02 6.15999997e-02 4.96362895e-01 4.96362895e-01
      3.90651403e-03 5.24409022e-03 2.16534324e-02 8.43455829e-03
      7.67084246e-04 2.29540444e-03 0. 2.01386437e-02 1.54436892e-03
      1.26555760e-03 9.55033349e-04 8.59709922e-03 3.01793255e-02
      1.36945816e-03 4.09793574e-03 1.91851649e-02 4.96362895e-01
      4.96362895e-01 3.63702811e-02 3.94295296e-03 3.08836699e-02
      1.05110118e-02 6.82649855e-03 5.96514251e-03 3.36102918e-02
      3.27532947e-01 3.27532947e-01 7.22350087e-03 3.50003853e-03
      3.54857906e-03 1.05687834e-01 1.76379811e-02 5.03315730e-03
      2.19456479e-02 3.27532947e-01 2.72903204e-01 5.82522973e-02
      4.41854075e-02 4.80002835e-02 5.26391529e-02 7.84036331e-03
      2.43076167e-04 8.83919932e-03 3.27532947e-01 3.27532947e-01
      7.11449236e-02 3.27097811e-02 3.57053950e-02 3.27532947e-01
      1.26566783e-01 1.19798072e-03 6.35738950e-03 3.27532947e-01
      3.27532947e-01 8.33466873e-02 4.43020575e-02 8.77737701e-02
      3.33611578e-01 5.53989634e-02 2.23275973e-03 2.20794277e-03
      3.79771143e-02 3.71900089e-02 5.84159493e-02 5.56714423e-02
      9.94716510e-02 3.50244015e-01 7.15992227e-02 3.54134681e-04
      2.95498525e-04 3.48384604e-02 1.22497611e-01 1.89823776e-01
      1.43899098e-01 2.08520353e-01 3.50244015e-01 3.02082717e-01
      1.96715607e-03 1.32124953e-03 3.60692367e-02 1.65193733e-02
      1.55002987e-02 1.27870692e-02 9.14753377e-02 3.50244015e-01
      2.48867989e-01 3.62409948e-04 2.01595016e-03 3.68109010e-02
      1.09050594e-01 2.71910071e-01 1.19025864e-01 3.29272062e-01
      2.83035547e-01 1.08200856e-01 9.47987952e-04 1.77453295e-03
      2.01693494e-02 6.37573600e-02 1.14053518e-01 1.03562318e-01
      1.73264369e-01 2.83035547e-01 1.69747412e-01 1.43247068e-01
      9.88572836e-02 1.93342984e-01 1.27804369e-01 5.73713481e-02
      3.14605758e-02 1.16752967e-01 2.83035547e-01 1.03679352e-01
      5.12762088e-03 1.21439043e-02 5.92104793e-02 1.24410994e-01
      2.83035547e-01 1.03048682e-01 2.26997614e-01 2.83035547e-01
      2.59103715e-01 2.83035547e-01 2.83035547e-01 2.61133701e-01
      5.08714765e-02 5.03690653e-02 1.45354550e-02 5.49554676e-02</_>
    <_>
      0. 0. 0. 0. 0. 0. 0. 0. 0. 0. 0. 0. 0. 5.88261671e-02 0. 0. 0. 0.
      0. 0. 0. 0. 0. 0. 0. 0. 0. 6.04703069e-01 0. 0. 3.38805169e-01
      3.79975080e-01 0. 0. 0. 6.04703069e-01 1.79838315e-02
      1.08579421e-04 3.24911060e-04 0. 2.74448842e-02 8.42660607e-04
      2.49793241e-03 2.19826517e-03 1.82948895e-02 8.18449035e-02
      1.31620951e-02 7.46997353e-03 2.63602287e-02 4.72680852e-02
      1.32920668e-02 1.07685775e-02 7.33451545e-03 6.69472069e-02
      3.55106086e-01 3.02218169e-01 4.87366598e-03 1.08342707e-01
      1.49792299e-01 6.12664074e-02 2.25571655e-02 4.34921421e-02
      3.55106086e-01 3.55106086e-01 3.55106086e-01 5.49436845e-02
      1.79660901e-01 2.72102565e-01 3.07518244e-01 6.80697039e-02
      9.80560407e-02 3.55106086e-01 1.83524325e-01 5.23219816e-02
      3.20081785e-02 7.26006776e-02 9.00362432e-02 2.50659920e-02
      1.12958653e-02 4.24927101e-02 1.29328921e-01 4.22854088e-02
      1.33336801e-02 1.11550391e-02 9.09535494e-03 4.79171053e-02
      5.38107194e-03 0. 3.19389738e-02 3.44037116e-02 3.78853619e-01
      3.32268119e-01 1.34609014e-01 2.24423632e-01 3.78853619e-01
      3.78853619e-01 6.93876222e-02 1.34398758e-01 3.78853619e-01
      1.56859621e-01 3.06443367e-02 2.77742483e-02 2.15023588e-02
      2.70476252e-01 9.19502154e-02 5.49216894e-03 5.31971417e-02
      1.79637328e-01 0. 0. 0. 0. 1.47213727e-01 0. 0. 0. 0. 0. 0. 0. 0.
      0. 0. 0. 0. 0. 2.74815708e-02 0. 0. 0. 7.01983333e-01 0. 0. 0.
      2.74815708e-02 4.79183167e-01 0. 0. 0. 0. 0. 0. 0. 4.79183167e-01
      0. 0. 0. 0. 0. 0. 0. 0. 0. 0. 0. 0. 0. 0. 0. 0. 0. 0.
      5.36669850e-01 0. 0. 0. 0. 0. 0. 0. 5.36669850e-01 4.49354440e-01
      0. 0. 0. 0. 0. 0. 0. 4.49354440e-01 0. 0. 0. 0. 0. 0. 0. 0. 0. 0.
